tree
version=v4
num_class=1
num_tree_per_iteration=1
label_index=0
max_feature_idx=257
objective=lambdarank
feature_names=Column_0 Column_1 Column_2 Column_3 Column_4 Column_5 Column_6 Column_7 Column_8 Column_9 Column_10 Column_11 Column_12 Column_13 Column_14 Column_15 Column_16 Column_17 Column_18 Column_19 Column_20 Column_21 Column_22 Column_23 Column_24 Column_25 Column_26 Column_27 Column_28 Column_29 Column_30 Column_31 Column_32 Column_33 Column_34 Column_35 Column_36 Column_37 Column_38 Column_39 Column_40 Column_41 Column_42 Column_43 Column_44 Column_45 Column_46 Column_47 Column_48 Column_49 Column_50 Column_51 Column_52 Column_53 Column_54 Column_55 Column_56 Column_57 Column_58 Column_59 Column_60 Column_61 Column_62 Column_63 Column_64 Column_65 Column_66 Column_67 Column_68 Column_69 Column_70 Column_71 Column_72 Column_73 Column_74 Column_75 Column_76 Column_77 Column_78 Column_79 Column_80 Column_81 Column_82 Column_83 Column_84 Column_85 Column_86 Column_87 Column_88 Column_89 Column_90 Column_91 Column_92 Column_93 Column_94 Column_95 Column_96 Column_97 Column_98 Column_99 Column_100 Column_101 Column_102 Column_103 Column_104 Column_105 Column_106 Column_107 Column_108 Column_109 Column_110 Column_111 Column_112 Column_113 Column_114 Column_115 Column_116 Column_117 Column_118 Column_119 Column_120 Column_121 Column_122 Column_123 Column_124 Column_125 Column_126 Column_127 Column_128 Column_129 Column_130 Column_131 Column_132 Column_133 Column_134 Column_135 Column_136 Column_137 Column_138 Column_139 Column_140 Column_141 Column_142 Column_143 Column_144 Column_145 Column_146 Column_147 Column_148 Column_149 Column_150 Column_151 Column_152 Column_153 Column_154 Column_155 Column_156 Column_157 Column_158 Column_159 Column_160 Column_161 Column_162 Column_163 Column_164 Column_165 Column_166 Column_167 Column_168 Column_169 Column_170 Column_171 Column_172 Column_173 Column_174 Column_175 Column_176 Column_177 Column_178 Column_179 Column_180 Column_181 Column_182 Column_183 Column_184 Column_185 Column_186 Column_187 Column_188 Column_189 Column_190 Column_191 Column_192 Column_193 Column_194 Column_195 Column_196 Column_197 Column_198 Column_199 Column_200 Column_201 Column_202 Column_203 Column_204 Column_205 Column_206 Column_207 Column_208 Column_209 Column_210 Column_211 Column_212 Column_213 Column_214 Column_215 Column_216 Column_217 Column_218 Column_219 Column_220 Column_221 Column_222 Column_223 Column_224 Column_225 Column_226 Column_227 Column_228 Column_229 Column_230 Column_231 Column_232 Column_233 Column_234 Column_235 Column_236 Column_237 Column_238 Column_239 Column_240 Column_241 Column_242 Column_243 Column_244 Column_245 Column_246 Column_247 Column_248 Column_249 Column_250 Column_251 Column_252 Column_253 Column_254 Column_255 Column_256 Column_257
feature_infos=[-0.12765346467494965:0.24180908501148224] [-0.14684265851974487:0.26612630486488342] [-0.11474978178739548:0.19645920395851135] [-0.12591521441936493:0.17906652390956879] [-0.21145802736282349:0.1633756011724472] [-0.22867295145988464:0.26621884107589722] [-0.27961176633834839:0.23800013959407806] [-0.18612821400165558:0.17308734357357025] [-0.31491121649742126:0.078010305762290955] [-0.14717936515808105:0.26523378491401672] [-0.1673617959022522:0.37587273120880127] [-0.27011507749557495:0.16824346780776978] [-0.22625942528247833:0.23925776779651642] [-0.18514053523540497:0.10844961553812027] [-0.11323179304599762:0.30321329832077026] [-0.21696029603481293:0.16287948191165924] [-0.3855212926864624:0.17178426682949066] [-0.22035183012485504:0.16021044552326202] [-0.17793279886245728:0.13869777321815491] [-0.17959615588188171:0.20304666459560394] [-0.27962389588356018:0.2534935474395752] [-0.2701469361782074:0.22516666352748871] [-0.18734319508075714:0.15851525962352753] [-0.18336819112300873:0.15059220790863037] [-0.18232187628746033:0.30343359708786011] [-0.17124201357364655:0.2085726261138916] [-0.20748814940452576:0.18560762703418732] [-0.27767539024353027:0.26283654570579529] [-0.13119423389434814:0.3261164128780365] [-0.14864626526832581:0.30404773354530334] [-0.19308850169181824:0.2112431526184082] [-0.17373707890510559:0.27894490957260132] [-0.1549832671880722:0.2270219475030899] [-0.21053361892700195:0.1892666220664978] [-0.25861307978630066:0.17098881304264069] [-0.24799786508083344:0.18521226942539215] [-0.23510456085205078:0.19671973586082458] [-0.14421336352825165:0.15085296332836151] [-0.49806657433509827:0.048200607299804688] [-0.20670904219150543:0.143325075507164] [-0.15094944834709167:0.15706075727939606] [-0.16472890973091125:0.23651839792728424] [-0.20560422539710999:0.16911906003952026] [-0.27157104015350342:0.25425067543983459] [-0.1231268048286438:0.23084230720996857] [-0.16602605581283569:0.25139933824539185] [-0.26141813397407532:0.096087969839572906] [-0.22996695339679718:0.26690632104873657] [-0.11803577840328217:0.1669132262468338] [-0.20160315930843353:0.16870521008968353] [-0.22223100066184998:0.2967660129070282] [-0.26717206835746765:0.28719860315322876] [-0.20375049114227295:0.17546954751014709] [-0.27088308334350586:0.070878408849239349] [-0.14685223996639252:0.3206847608089447] [-0.1390080600976944:0.15648938715457916] [-0.22985278069972992:0.20362734794616699] [-0.15991885960102081:0.19862653315067291] [-0.1350005567073822:0.28900885581970215] [-0.12738229334354401:0.3655417263507843] [-0.22726023197174072:0.19632211327552795] [-0.19136214256286621:0.21617121994495392] [-0.26286783814430237:0.08522351086139679] [-0.28439506888389587:0.13357014954090118] [-0.27974450588226318:0.13713698089122772] [-0.096889153122901917:0.27343600988388062] [-0.14752441644668579:0.23329806327819824] [-0.22001026570796967:0.23842908442020416] [-0.20059990882873535:0.26206031441688538] [-0.13435901701450348:0.26851293444633484] [-0.29196509718894958:0.076086722314357758] [-0.20971880853176117:0.16511225700378418] [-0.18438932299613953:0.17806194722652435] [-0.14848560094833374:0.14509016275405884] [-0.25411593914031982:0.16380174458026886] [-0.18579967319965363:0.20641900599002838] [-0.23140977323055267:0.19904810190200806] [-0.17439284920692444:0.28657618165016174] [-0.26721376180648804:0.27624380588531494] [-0.21576926112174988:0.086022473871707916] [-0.22822567820549011:0.21110554039478302] [-0.22527073323726654:0.019187444821000099] [-0.24392795562744141:0.11673697084188461] [-0.14741857349872589:0.1603209525346756] [-0.10779768973588943:0.17584183812141418] [-0.17062292993068695:0.18010044097900391] [-0.30842497944831848:0.1753019243478775] [-0.21021619439125061:0.17669376730918884] [-0.23135463893413544:0.26505452394485474] [-0.37905403971672058:0.1676165908575058] [-0.20707869529724121:0.14005926251411438] [-0.21213933825492859:0.25860214233398438] [-0.25173407793045044:0.25819942355155945] [-0.18372209370136261:0.22213643789291382] [-0.15909995138645172:0.20902721583843231] [-0.1861107349395752:0.28033632040023804] [-0.20447875559329987:0.25559023022651672] [-0.13639101386070251:0.22845590114593506] [-0.14118437469005585:0.2643166184425354] [-0.14898250997066498:0.20220686495304108] [-0.18805906176567078:0.17031513154506683] [-0.27328908443450928:0.23076198995113373] [-0.26933169364929199:0.17128439247608185] [-0.20200034976005554:0.19352176785469055] [-0.26541045308113098:0.23938894271850586] [-0.28297802805900574:0.10718952119350433] [-0.278155118227005:0.086443595588207245] [-0.14667031168937683:0.25466850399971008] [-0.21158301830291748:0.13731120526790619] [-0.15969228744506836:0.13232806324958801] [-0.21807527542114258:0.19855569303035736] [-0.23236361145973206:0.19733874499797821] [-0.20774801075458527:0.16329905390739441] [-0.19167745113372803:0.26899224519729614] [-0.14943201839923859:0.2003866583108902] [-0.1756567656993866:0.12279095500707626] [-0.26447886228561401:0.19297917187213898] [-0.24432389438152313:0.17247490584850311] [-0.2411409467458725:0.17909686267375946] [-0.24078626930713654:0.19846166670322418] [-0.13661126792430878:0.24049335718154907] [-0.18661165237426758:0.24132536351680756] [-0.10331625491380692:0.32195907831192017] [-0.29584994912147522:0.18228825926780701] [-0.25618147850036621:0.18283830583095551] [-0.31744453310966492:0.081876777112483978] [-0.33824864029884338:0.14441071450710297] [-0.12811137735843658:0.2598319947719574] [-0.13956733047962189:0.2341998964548111] [-0.125538170337677:0.28104978799819946] [-0.073620960116386414:0.20049303770065308] [-0.13193219900131226:0.16810329258441925] [-0.14778237044811249:0.20251418650150299] [-0.2001645416021347:0.22855249047279358] [-0.15337421000003815:0.2556801438331604] [-0.19499382376670837:0.1818145215511322] [-0.29944658279418945:0.078739665448665619] [-0.1485876739025116:0.26152822375297546] [-0.22092296183109283:0.34796181321144104] [-0.19597676396369934:0.14049558341503143] [-0.17358380556106567:0.24696837365627289] [-0.23621208965778351:0.043461564928293228] [-0.12317053973674774:0.28509852290153503] [-0.20924176275730133:0.131047323346138] [-0.38186004757881165:0.088751748204231262] [-0.21132123470306396:0.15240050852298737] [-0.25333517789840698:0.089762084186077118] [-0.15429998934268951:0.21960847079753876] [-0.18020433187484741:0.25139948725700378] [-0.24887651205062866:0.27340048551559448] [-0.1469198614358902:0.15155453979969025] [-0.12832088768482208:0.19520646333694458] [-0.16795821487903595:0.26981550455093384] [-0.18621876835823059:0.2045024037361145] [-0.14324934780597687:0.19822841882705688] [-0.22816883027553558:0.31456565856933594] [-0.085219964385032654:0.26543611288070679] [-0.20950654149055481:0.27187544107437134] [-0.15421782433986664:0.26525393128395081] [-0.18225796520709991:0.24881768226623535] [-0.15061850845813751:0.19751638174057007] [-0.18139468133449554:0.20532232522964478] [-0.2231849879026413:0.16278626024723053] [-0.26074683666229248:0.10458260774612427] [-0.27770447731018066:0.23378610610961914] [-0.15937121212482452:0.18974833190441132] [-0.52066886425018311:-0.0018166705267503858] [-0.22799427807331085:0.14968198537826538] [-0.12452885508537292:0.13235865533351898] [-0.19190974533557892:0.22227855026721954] [-0.17387174069881439:0.17412105202674866] [-0.2522503137588501:0.25781720876693726] [-0.13651551306247711:0.18734854459762573] [-0.18321913480758667:0.21166086196899414] [-0.2310367226600647:0.158447265625] [-0.20003966987133026:0.2738012969493866] [-0.099288992583751678:0.17802098393440247] [-0.12854054570198059:0.18394897878170013] [-0.25589638948440552:0.31754523515701294] [-0.25094819068908691:0.23505224287509918] [-0.13332460820674896:0.18640553951263428] [-0.30302765965461731:0.092647016048431396] [-0.13854183256626129:0.33785346150398254] [-0.15593571960926056:0.15957611799240112] [-0.30236753821372986:0.16206161677837372] [-0.21145422756671906:0.18577152490615845] [-0.10244083404541016:0.27593427896499634] [-0.076023682951927185:0.35458236932754517] [-0.2306724488735199:0.17127023637294769] [-0.1833328902721405:0.15440121293067932] [-0.23248226940631866:0.11691448092460632] [-0.2813432514667511:0.11389253288507462] [-0.2519376277923584:0.1267966628074646] [-0.11648352444171906:0.2534395158290863] [-0.1435999721288681:0.22817248106002808] [-0.21503075957298279:0.23615445196628571] [-0.25941753387451172:0.30870321393013] [-0.17061080038547516:0.24997320771217346] [-0.29384338855743408:0.099190607666969299] [-0.2149212509393692:0.15483605861663818] [-0.20128346979618073:0.16963334381580353] [-0.099564619362354279:0.18934845924377441] [-0.28906592726707458:0.17274665832519531] [-0.13370256125926971:0.23886226117610931] [-0.21965736150741577:0.2719082236289978] [-0.1931631863117218:0.21478241682052612] [-0.22846163809299469:0.27252379059791565] [-0.1863907128572464:0.07522900402545929] [-0.17553193867206573:0.22482578456401825] [-0.23763160407543182:0.039845991879701614] [-0.28671219944953918:0.10804039984941483] [-0.12806364893913269:0.14673653244972229] [-0.076611734926700592:0.24276955425739288] [-0.16597285866737366:0.16884776949882507] [-0.29415479302406311:0.067775867879390717] [-0.1698637455701828:0.18006120622158051] [-0.24335263669490814:0.25727006793022156] [-0.40077283978462219:0.11737480014562607] [-0.11389465630054474:0.2192080020904541] [-0.16249682009220123:0.25657811760902405] [-0.256355881690979:0.22838380932807922] [-0.19881345331668854:0.17927736043930054] [-0.15090405941009521:0.194798544049263] [-0.14463189244270325:0.32679083943367004] [-0.17481918632984161:0.2274947464466095] [-0.11474774777889252:0.22272978723049164] [-0.102957583963871:0.26156008243560791] [-0.18365795910358429:0.14044734835624695] [-0.17991605401039124:0.22016789019107819] [-0.20391403138637543:0.25187951326370239] [-0.27175894379615784:0.13832546770572662] [-0.21770666539669037:0.18092748522758484] [-0.20125824213027954:0.25975656509399414] [-0.32993331551551819:0.058889392763376236] [-0.28990298509597778:0.10387944430112839] [-0.15389767289161682:0.26507136225700378] [-0.18146206438541412:0.15004651248455048] [-0.15776821970939636:0.16260883212089539] [-0.26794195175170898:0.17559352517127991] [-0.20132024586200714:0.21226897835731506] [-0.1973332017660141:0.20450291037559509] [-0.18757669627666473:0.3314659595489502] [-0.18068021535873413:0.16634353995323181] [-0.22537651658058167:0.073275052011013031] [-0.20541411638259888:0.18975619971752167] [-0.27986690402030945:0.12652464210987091] [-0.21364560723304749:0.16359102725982666] [-0.22061820328235626:0.1913408637046814] [-0.1513323038816452:0.29306879639625549] [-0.13475616276264191:0.24529589712619781] [-0.14585797488689423:0.28463751077651978] [-0.24109895527362823:0.17443360388278961] [-0.30572813749313354:0.16556791961193085] [-0.37067383527755737:0.0036878506653010845] [-0.36188963055610657:0.087454795837402344] [-0.1421436220407486:0.23367825150489807] [0:0.58333333333333337] [0.039776261727988205:1.1999115249890662]
tree_sizes=4486 4500 4491 4498 4494 4495 4520 4497 4500 4503 4506 4519 4515 4514 4521 4528 4497 4514 4523 4505 4501 4518 4525 4531 4516 4520 4521 4520 4508 4526 4527 4523 4529 4502 4524 4511 4521 4527 4532 4533 4529 4538 4532 4513 4532 4520 4536 4543 4540 4532 4526 4537 4540 4516 4529 4520 4511 4528 4537 4516 4548 4526 4532 4535 4526 4512 4518 4541 4524 4537 4542 4549 4542 4531 4545 4538 4556 4536 4550 4549 4530 4545 4541 4557 4543 4546 4555 4547 4530 4561 4554 4550 4552 4537 4577 4549 4557 4545 4548 4562

Tree=0
num_leaves=40
num_cat=0
split_feature=256 256 182 243 180 80 256 148 183 107 54 167 219 163 137 60 197 38 49 257 14 135 229 79 256 66 135 59 144 224 192 24 52 151 115 30 21 100 123
split_gain=31130.9 814.167 109.366 51.0295 49.2092 54.1444 48.6227 36.0745 35.1289 29.6729 24.5799 23.2633 20.5633 17.8484 17.7309 17.0417 16.9149 16.7202 16.6877 23.4405 16.4027 16.3239 15.8252 15.3403 15.1677 15.0215 14.7243 16.4609 14.1535 13.3908 13.029 12.5133 12.2529 14.0461 12.2068 16.208 12.9112 11.9325 11.6861
threshold=0.016807909604519777 0.04210992907801419 0.11642035841941835 -0.08709965273737906 0.038602378219366081 0.041797431185841567 0.053101503759398504 -0.014641865622252224 0.028889322653412822 0.12850575894117358 0.18519107252359393 -0.043932233005762093 0.099833004176616683 -0.15035967528820035 0.10877039283514024 0.0085817109793424624 0.099699828773736968 -0.40597686171531672 -0.0024314664769917722 0.36817797412663267 0.17120057344436648 -0.0033715914469212289 0.037143364548683173 0.010997841134667398 0.021507863089731735 0.054868802428245551 0.0010577907087281348 0.25593413412570959 -0.17503868043422696 0.062008738517761237 -0.12645499408245084 0.0085591641254723089 -0.033265812322497361 -0.0056656186934560529 -0.039332266896963113 0.050678554922342307 -0.026922591961920258 -0.028515872545540329 -0.16011264920234677
decision_type=2 2 2 2 2 2 2 2 2 2 2 2 2 2 2 2 2 2 2 2 2 2 2 2 2 2 2 2 2 2 2 2 2 2 2 2 2 2 2
left_child=-1 2 3 7 9 16 8 14 -3 12 20 -10 13 -4 -2 22 21 -9 30 34 26 24 29 -12 -6 -16 -5 -28 -14 -11 -15 -24 33 -26 35 36 -20 -21 -22
right_child=1 6 4 10 5 -7 -8 17 11 15 23 -13 28 18 25 -17 -18 -19 19 37 38 -23 31 -25 32 -27 27 -29 -30 -31 -32 -33 -34 -35 -36 -37 -38 -39 -40
leaf_value=-0.039494450477566612 -0.03423384772453103 0.034244637056204896 -0.040000000000000001 0.020802913808925721 -0.040000000000000001 -0.022868709125456851 0.039643777498388606 0.020790723128441341 -0.0063875683619044115 0.019796132296050969 -0.036273555725904745 0.024273011068796625 0.016637311027697083 -0.026271278185803187 0.020099426581472443 -0.027890153385090675 -0.017498994963442833 -0.032399833862343498 0.019341637595514431 0.0075899355006737428 0.036254072630406725 -0.02896103839888936 0.030778260586975685 0.031305280124142548 0.019182969357206286 -0.027316975770241586 -0.040000000000000001 0.036153691918671273 -0.034438275488128473 -0.025739722426165464 0.029198852734303948 -0.039999999999999994 0.02721963051481132 -0.040000000000000001 0.030042767700576511 0.023969082611954261 -0.0079649634886697681 -0.031647922828724785 -0.040000000000000001
leaf_weight=4181.8689781378853 4.1017497720895362 229.77029099059291 1.7292878911248397 45.910290146188345 1.5920625362778071 22.070747567340732 3758.05165179912 2.5383368006441733 13.85727661650162 28.29295457620174 6.7136227346782089 34.649024575279327 4.6788610219664406 1.7109704327303905 15.17151054198621 5.3876637648500028 6.0476466981635886 34.403655683912802 13.133238305250412 9.6367483958019857 1.0440076184459028 2.8061511356791007 1.3424617858836416 1.6797849163413046 4.6087551406235434 3.2439136439497807 3.4444584795855908 1.6935991742066105 4.0475346059247368 2.8427610286162226 168.42291825561551 3.9070789635879919 38.695540449669352 2.4604101152217472 47.684557042754022 50.348273410432739 14.654693491029324 4.570434723282232 3.4954221030347972
leaf_count=293964 248 1636 134 956 113 1155 10471 57 557 568 436 572 125 84 267 330 275 2146 310 319 9 170 23 17 103 149 290 14 229 136 2027 244 583 161 556 807 575 238 246
internal_value=0 0.035901 0.0133951 -0.00324352 0.0180559 0.00367601 0.0390464 -0.0165827 0.0309797 0.0211621 0.00915286 0.0155139 0.0232279 0.0240751 0.00337103 0.00530707 0.0140986 -0.028745 0.0244323 0.0193188 0.0139698 0.017908 0.0102227 -0.0227489 0.0206853 0.0117469 0.0172096 -0.0148983 -0.00705291 0.0156386 0.028641 -0.0218999 0.0227964 -0.00141556 0.0220685 0.017202 0.00494079 -0.00503284 -0.0224626
internal_weight=0 4600.44 564.112 123.44 440.672 78.2813 4036.33 59.4592 278.277 362.39 63.9812 48.5063 320.618 311.891 22.5172 41.7729 56.2106 36.942 310.162 140.028 55.5878 50.1629 36.3853 8.39341 47.3568 18.4154 51.0483 5.13806 8.7264 31.1357 170.134 5.24954 45.7647 7.06917 125.821 78.1362 27.7879 14.2072 4.53943
internal_count=321300 27336 14100 4835 9265 2560 13236 2867 2765 6705 1968 1129 5404 5050 664 1301 1405 2203 4916 2805 1515 1130 971 453 960 416 1260 304 354 704 2111 267 847 264 2248 1692 885 557 255
is_linear=0
shrinkage=0.02


Tree=1
num_leaves=40
num_cat=0
split_feature=256 256 256 257 256 193 183 107 14 256 257 236 257 7 157 133 115 163 60 200 183 193 103 164 195 256 257 107 28 187 99 256 103 175 7 39 106 76 11
split_gain=85510.4 2879.99 1419.23 361.125 207.62 159.185 148.568 128.755 124.232 95.4132 93.5707 93.2107 82.3763 77.5481 73.8432 70.8461 70.7721 74.7305 84.0665 69.0956 64.5376 61.8775 60.1125 59.901 70.4903 58.8885 65.6122 57.7075 48.808 48.4358 48.3285 50.9363 46.2563 67.4056 43.8997 43.8937 42.7335 42.5338 51.0917
threshold=0.028991596638655467 0.050641025641025648 0.016807909604519777 0.27303303989452304 0.059411764705882358 0.047777313739061363 0.019613248296082023 0.07105793803930284 0.12669299542903903 0.03883861236802414 0.52816956679163229 -0.018561378121376034 0.4014155547027346 0.048147315159440048 0.080306489020586028 0.0022534350864589219 -0.025713433511555191 -0.10103720799088477 -0.033118113875389092 -0.056200444698333733 0.027333984151482586 0.083270892500877394 0.16161285340785983 -0.1092790476977825 0.017232963815331463 0.077677224736048281 0.43871910152970339 0.11135146766901018 0.18301224708557132 0.18479443341493609 0.044350331649184234 0.033615819209039555 0.015862603671848777 0.066306605935096755 -0.013653408270329235 -0.0052953078411519519 -0.12039602920413016 -0.10561923310160636 -0.098450616002082811
decision_type=2 2 2 2 2 2 2 2 2 2 2 2 2 2 2 2 2 2 2 2 2 2 2 2 2 2 2 2 2 2 2 2 2 2 2 2 2 2 2
left_child=2 3 -1 9 6 13 -3 11 10 21 27 32 14 15 -8 22 17 -10 -19 28 -17 23 -5 -2 -25 26 -6 30 -9 37 31 -7 33 -4 -20 -29 -14 -21 -39
right_child=1 4 7 5 25 8 12 19 16 -11 -12 -13 36 -15 -16 20 -18 18 34 29 -22 -23 -24 24 -26 -27 -28 35 -30 -31 -32 -33 -34 -35 -36 -37 -38 38 -40
leaf_value=-0.038106948360501131 0.015539002346429244 0.031504286202731636 -0.034918689862427903 -0.033365594515813862 0.035175306658043116 -0.0064358405976748904 0.023048641367298655 -0.018617557908064859 -0.029941447847171725 0.025960125617172928 -0.030302720979543514 -0.011950374063283194 -0.03994829448328447 0.01498961180746889 -0.017826143050131211 0.0015133161635330068 0.014536067921702431 0.0080214509973723491 -0.030713152610487546 0.0095368383778199131 -0.036063630129087691 0.021266230013683978 0.039168882798768657 0.013102855280396369 -0.018612687366814124 0.038017945443227577 0.017066665556516078 -0.013643553662488372 0.020816046660265913 -0.038159930003219551 0.027559305546676925 0.01760441853392786 0.020029707960875356 0.014168564160875639 -0.0018617347625018547 0.012718705859799515 0.0045241020981421068 -0.0020623053322276468 -0.032810315978729861
leaf_weight=12812.191238867003 141.91503306664526 643.46615673601627 16.927432646974921 81.824245465919375 2465.0641747750342 43.009917760267854 132.27632891386747 20.69206384755671 45.735506998375058 529.16757339891046 18.556222235783935 78.813676078803837 16.438960729166865 39.667495461646467 20.406452365219593 97.045002666302025 82.395369897596538 134.17076196987182 45.748460573144257 24.126135795377195 22.525896181352437 226.13963400106877 4.8405715227127066 52.022903783246875 60.783005245961249 9334.8025856055319 82.719308733940125 41.755485722795129 31.926896564662457 47.05721399653703 156.96977586764842 195.50038168113679 136.30891455989331 33.011795904487371 39.14652902353555 63.964870259165764 18.223578186705709 36.292956173419952 53.452107346616685
leaf_count=293964 686 712 265 1257 2236 384 231 277 643 1330 280 874 87 206 78 723 410 849 634 151 453 846 3 265 719 7369 129 461 133 821 407 781 548 147 299 378 63 361 840
internal_value=0 0.0330058 -0.0368438 0.0114417 0.0366066 0.00358319 0.0269408 -0.00302933 0.00761171 0.0201004 0.0137995 0.00628163 0.0112667 -0.0106197 0.0175856 -0.0155454 -0.00165151 -0.00668842 -0.00183377 -0.0145864 -0.00556578 0.0136519 -0.0293143 0.00689198 -0.00398637 0.0372824 0.0345874 0.0154324 0.00530904 -0.0210916 0.0189411 0.0132693 0.0139968 -0.00247008 -0.0174093 0.00230662 -0.0165673 -0.0140381 -0.0203758
internal_weight=0 14836.3 13290.8 2122.88 12713.4 1112.86 830.811 478.609 866.953 1010.03 519.757 265.062 187.345 245.903 152.683 206.236 347.197 264.801 219.066 213.547 119.571 480.861 86.6648 254.721 112.806 11882.6 2547.78 501.2 52.619 160.928 395.48 238.51 186.248 49.9392 84.895 105.72 34.6625 113.871 89.7451
internal_count=321300 22919 298381 12014 10905 8168 1171 4417 5526 3846 2691 1834 459 2642 309 2436 2835 2425 1782 2583 1176 2516 1260 1670 984 9734 2365 2411 410 2173 1572 1165 960 412 933 839 150 1352 1201
is_linear=0
shrinkage=0.02


Tree=2
num_leaves=40
num_cat=0
split_feature=256 256 257 256 182 257 107 146 14 193 42 256 193 133 45 111 122 193 14 192 55 47 111 222 133 73 15 157 257 126 46 248 78 35 190 171 184 14 256
split_gain=74896 2965.71 231.977 181.174 175.072 106.383 105.625 102.047 97.8231 92.3561 87.9058 86.5158 79.9247 71.9564 62.7854 60.875 52.655 52.0011 49.9023 48.4448 47.8048 46.6578 45.5373 56.6117 45.453 43.4942 42.827 42.6754 41.9606 41.6748 41.4944 43.4446 41.2361 39.9837 37.55 37.4609 37.2998 35.174 34.5874
threshold=0.01941930618401207 0.045804195804195813 0.23837326054602478 0.067231638418079109 0.11112002655863763 0.29920487094383375 0.032823400571942336 -0.07039314508438109 0.15637229382991794 0.087636355310678496 0.049155317246913917 0.016807909604519777 0.10354373231530191 -0.018250887282192704 -0.0016253730864264069 0.02903161104768515 0.097658287733793273 0.073532886803150191 0.077322792261838927 -0.007165350252762436 0.093873087316751494 0.058821698650717742 -0.023125370964407917 0.021886377595365051 0.033074671402573592 -0.043551651760935776 -0.10024635866284369 0.094820626080036177 0.3855006069252927 -0.13924500346183774 -0.025381762534379956 0.090129621326923384 0.02761507406830788 0.011538878083229067 -0.14368747919797895 -0.12937769293785092 -0.164781279861927 0.03821185231208802 0.091750841750841763
decision_type=2 2 2 2 2 2 2 2 2 2 2 2 2 2 2 2 2 2 2 2 2 2 2 2 2 2 2 2 2 2 2 2 2 2 2 2 2 2 2
left_child=11 2 17 5 9 -3 -6 19 12 10 30 -1 13 25 -10 28 -16 22 -11 27 26 -13 -2 -24 -9 -8 -17 -7 29 -15 -4 -32 -20 -28 -14 -31 -18 -30 -5
right_child=1 3 4 38 6 7 8 24 14 18 -12 21 34 15 16 20 36 -19 32 -21 -22 -23 23 -25 -26 -27 33 -29 37 35 31 -33 -34 -35 -36 -37 -38 -39 -40
leaf_value=-0.036736550958752064 0.019682899657968239 0.032018539301221338 -0.031167248656912908 0.034384476854649154 0.017711364240580896 0.026472761869755824 0.0070254120306410565 -0.037662913541676432 0.015016131812680836 0.01944140306604376 0.016938769689683612 -0.034265530915249198 -0.029449663366401282 -0.039096140896182602 0.0035044141748777897 0.019311003288640841 0.00063577937620698923 0.023130550374599164 -0.025916536745408728 -0.013282348730001956 0.026076135927115281 0.014535401648259387 -0.024135611309296701 0.0097100286822041897 0.0069840380976438554 -0.025527570682664386 -0.031522827404464999 -0.0029519519546007253 0.015802411795171573 -0.034428058842976041 -0.031749155958985364 0.014598129175488446 0.0041522100830262577 0.0063585452610602214 0.019838627116557879 0.018221721214830702 -0.03098597674560661 -0.022684839795780905 0.036875431482065284
leaf_weight=11994.02602663287 128.09385361708701 1312.4936529695988 109.51736779417843 3264.4302431121469 311.93505789898336 375.91046063601971 24.187602518126369 14.984540653415023 32.312530526891351 47.678119120188057 22.937718929722905 12.775804949924348 6.3945017736405125 5.4896456692367783 38.338845436228439 12.256328139454125 18.814193692058325 402.09092583507299 28.111034024506807 13.730555325746534 13.750139605253933 20.270276077091694 25.19021616037935 91.834789437241852 23.308694569393992 51.107007775455713 43.46066558919847 20.807009318843484 15.87140650488436 5.5600227564573279 14.316446498967705 18.60114530287683 51.972267140634358 14.989233797416089 186.72149227373302 194.65808796789497 72.104547310620546 23.654586378484964 7034.3685187473893
leaf_count=293964 559 1734 2366 3094 1534 822 207 133 208 264 145 263 104 77 343 65 192 1361 546 97 42 154 347 606 106 890 698 122 93 84 286 145 496 103 830 947 1190 362 5721
internal_value=0 0.031322 0.00884268 0.0350721 0.00416596 0.0291444 0.00791249 0.0207381 0.00388889 -0.00953019 -0.0193975 -0.0366475 0.00761908 0.00257046 -0.00991956 0.00659924 -0.0161531 0.0187043 0.00324189 0.0236512 -0.00804511 -0.00433132 0.0114434 0.00242459 -0.0104868 -0.0150703 -0.0146806 0.0249295 0.0116426 0.015269 -0.0252491 -0.00555913 -0.00640259 -0.0218083 0.0182066 0.0167596 -0.0244424 -0.00723053 0.0360859
internal_weight=0 14072 2011.95 12060 1364.74 1761.23 1071.61 448.741 759.671 293.134 165.373 12027.1 598.101 404.985 161.57 329.69 129.258 647.21 127.761 410.448 84.4564 33.0461 245.119 117.025 38.2932 75.2946 70.7062 396.717 245.234 205.708 142.435 32.9176 80.0833 58.4499 193.116 200.218 90.9187 39.526 10298.8
internal_count=321300 26919 15090 11829 12217 3014 7969 1280 6435 4248 2942 294381 4502 3568 1933 2471 1725 2873 1306 1041 908 417 1512 953 239 1097 866 944 1563 1108 2797 431 1042 801 934 1031 1382 455 8815
is_linear=0
shrinkage=0.02


Tree=3
num_leaves=40
num_cat=0
split_feature=256 256 257 182 256 256 256 227 14 16 205 257 80 117 117 7 230 257 183 141 30 7 14 193 42 135 234 18 200 128 229 93 177 227 180 222 22 168 188
split_gain=66985.7 2506.05 236.958 141.227 116.914 112.258 107.263 76.214 72.5276 68.8812 63.5475 59.5196 54.6267 52.4253 52.2931 75.52 51.9504 50.7246 49.5836 47.7889 47.2529 45.5377 45.0505 43.5499 44.9749 42.5582 40.4539 40.1689 39.8923 38.8703 36.3994 36.2774 43.2629 36.3143 34.8381 34.6656 38.019 34.2622 33.6484
threshold=0.020204081632653064 0.050641025641025648 0.31278838306134782 0.12217460572719575 0.016807909604519777 0.040408163265306128 0.077677224736048281 -0.061581958085298531 0.082930821925401701 -0.097668129950761781 -0.019749281927943226 0.27024472032761954 0.0087585197761654871 -0.010458846576511858 -0.06940776482224463 -0.018385382369160649 -0.072668146342039094 0.4686664849896196 0.014143021311610939 -0.086968038231134401 0.12918892502784732 -0.082304123789072023 0.16578082740306857 0.096066832542419447 0.05428020283579827 0.0046025766059756288 -0.15454155206680295 -0.049517774954438203 -0.013035039417445658 0.083146519958972945 0.049935789778828628 0.034649349749088294 0.042913403362035758 -0.030321092344820496 1.0000000180025095e-35 -0.020167106762528416 0.041116939857602126 -0.021553839556872841 -0.026609298773109909
decision_type=2 2 2 2 2 2 2 2 2 2 2 2 2 2 2 2 2 2 2 2 2 2 2 2 2 2 2 2 2 2 2 2 2 2 2 2 2 2 2
left_child=4 2 5 8 -1 7 11 -2 17 16 13 -3 21 34 15 -14 29 -4 -7 30 -19 -12 25 24 -10 -11 -6 31 -17 -5 -13 33 -33 -16 -9 36 -32 -21 -20
right_child=1 6 3 9 26 18 -8 10 23 22 12 19 14 -15 27 28 -18 20 38 37 -22 -23 -24 -25 -26 -27 -28 -29 -30 -31 35 32 -34 -35 -36 -37 -38 -39 -40
leaf_value=-0.035530097268900711 -0.02149784445018172 0.032692115617926544 0.010944949673742217 0.0045468881536426522 0.013497427571297731 0.026856406317039019 0.035250686626711318 0.0019770622917335474 -0.031164863892609251 0.016985314151773508 -0.026938027614680497 0.029462952042910297 -0.020784486618890399 0.015674054620478252 0.0098647961001607151 0.014370975096676092 -0.031019980297367786 -0.03584018474604727 -0.0013384416724822857 -0.036935893129255881 0.028059938967377743 0.02305050716847263 -0.0066123399122616187 -0.0050050599928176086 0.010406402595994384 -0.026100112586500405 -0.023987948863825031 0.019984313549027601 -0.021995247157490377 -0.03809290401874748 -0.031543730828744482 0.016407597938837386 -0.038100288829261052 -0.02985314735122966 -0.030927504922282776 0.022444489328349051 0.022460148015744096 0.014330658231517624 0.019412929545382127
leaf_weight=11466.676245476818 27.372448557056487 1827.2700099684298 80.868547838181257 138.56083508208394 25.086518310941756 380.16537049319595 8562.6083218753338 22.997341673821211 88.309024689719081 305.5612466307357 7.5035603288561097 663.80944992043078 45.965852156281471 33.302899764850736 17.614951817318797 95.420245755463839 22.012530731968582 20.092491028830413 44.36120761372149 5.7138381525874129 6.0146521758288136 255.36673863697797 40.927900022594258 62.672217187006027 11.800909446552394 9.4540029820054752 21.28811401501298 215.21861091163009 13.812232054769991 9.1140928976237756 11.012423262000086 84.127060474827886 6.2577214557677499 19.293297786265612 29.228932751342654 95.899666706100106 9.9042254835367185 59.660276837646961 105.79930728673935
leaf_count=293964 465 2026 637 1203 193 829 7369 181 2105 1692 126 1005 679 192 139 563 412 472 314 42 23 1001 510 840 91 167 423 1011 193 173 69 464 118 312 526 197 20 177 377
internal_value=0 0.0303373 0.010813 0.00209134 -0.0354019 0.0157546 0.0341588 0.0113477 -0.00967259 0.00812868 0.0124103 0.0306615 0.0142483 -0.00393456 0.010353 0.000722314 -0.00235722 0.00311991 0.023013 0.0262757 -0.0211187 0.0216236 0.0131276 -0.0180795 -0.0262645 0.0156923 -0.0037101 0.0147169 0.00977254 0.00191528 0.0276513 0.00581103 0.0126338 -0.0108972 -0.0164383 0.0173563 -0.0059724 0.00984985 0.0132825
internal_weight=0 13435.1 2199.2 795.388 11513.1 1403.81 11235.9 873.482 269.758 525.631 846.109 2673.27 760.58 85.5292 497.71 155.198 169.687 106.976 530.326 846 26.1071 262.87 355.943 162.782 100.11 315.015 46.3746 342.512 109.232 147.675 780.626 127.293 90.3848 36.9082 52.2263 116.816 20.9166 65.3741 150.161
internal_count=321300 26720 15815 8325 294580 7490 10905 5970 4168 4157 5505 3536 4606 899 3479 1435 1788 1132 1520 1510 495 1127 2369 3036 2196 1859 616 2044 756 1376 1291 1033 582 451 707 286 89 219 691
is_linear=0
shrinkage=0.02


Tree=4
num_leaves=40
num_cat=0
split_feature=256 256 257 256 135 256 16 164 243 175 58 155 14 256 243 245 158 128 214 21 20 12 193 137 58 68 61 139 111 128 73 115 32 177 170 117 193 35 80
split_gain=60951.5 2238.68 184.618 171.934 120.229 100.632 80.1982 75.8113 64.3345 63.1811 61.6571 56.3917 56.3053 52.2755 51.457 47.7659 47.0919 45.4369 44.7329 44.7106 42.0036 38.2266 36.6039 35.9395 36.5448 37.6065 35.8807 40.7051 35.5372 35.4325 40.0616 35.0154 44.2317 37.2808 36.7018 40.4641 33.9381 32.6729 32.5979
threshold=0.020204081632653064 0.045804195804195813 0.31278838306134782 0.059411764705882358 -0.011564746499061583 0.016807909604519777 -0.10434589907526969 -0.10288710519671439 -0.10793727263808249 -0.034754194319248193 0.013841433450579645 -0.055951137095689767 0.13465881347656253 0.091750841750841763 -0.099361401051282869 -0.024165797047317025 -0.024312928318977352 0.064337521791458144 -0.11320891976356505 -0.075542736798524843 0.039206115528941161 -0.03097598813474178 0.045624898746609695 0.16515930742025378 0.033306865021586425 -0.093538075685501085 0.016408588737249378 -0.12225412577390669 -0.069283906370401369 0.057556392624974258 -0.0043090926483273497 -0.028760653920471665 0.017746467143297199 0.022802818566560749 -0.041332330554723733 -0.066375710070133195 0.107136107981205 -0.17899879068136212 -0.019352988339960572
decision_type=2 2 2 2 2 2 2 2 2 2 2 2 2 2 2 2 2 2 2 2 2 2 2 2 2 2 2 2 2 2 2 2 2 2 2 2 2 2 2
left_child=5 2 7 9 6 -1 18 31 23 16 -6 -10 22 -5 17 -12 -3 -11 -4 -14 21 -13 26 24 -9 -26 -8 -28 -7 -23 -31 32 33 34 -2 -36 -30 -35 -22
right_child=1 3 4 13 10 28 12 8 11 14 15 20 19 -15 -16 -17 -18 -19 -20 -21 38 29 -24 -25 25 -27 27 -29 36 30 -32 -33 -34 37 35 -37 -38 -39 -40
leaf_value=-0.034456479752577991 0.019708134426252265 0.023411278041604242 -0.00012503176658057319 0.0315279301451988 0.014018231800863817 0.024629847199408035 0.016382061342100233 0.025497746602704145 -0.033149139287695646 0.017723927995410876 -0.027200544288645032 0.023845209732489679 0.017336838074410839 0.034525122534858073 0.027242205406192471 0.0083403284028895335 -0.029679341947331878 -0.01999884089768476 -0.023359299522772568 -0.011930925372408122 0.019091382978361923 0.013319460354081792 0.017111980740113632 0.023399117404967886 0.02398385958568389 -0.033176992320180114 0.03330109019456378 -0.034043441253464514 -0.031999655652839645 -0.022840433702204909 0.015035221906388103 0.025415930076502353 0.020005886739543892 0.024816210914998887 -0.030705374739643833 0.011604570732306585 0.010540108977422295 -0.01577172373396464 -0.0162996963269459
leaf_weight=11100.9857602478 95.341432863846421 12.191383328288795 111.88915670569986 3568.5776075385511 23.131082957610488 12.362540191039441 20.135474467650056 6.3680048920214167 11.52779829315841 103.34495543129742 98.378408405464143 110.96396149881184 29.785805940628052 6694.2074512243271 775.83962322957814 17.874094641767442 14.791025843005626 14.57311627268791 47.098132248967886 69.81268320872914 14.928631962276993 199.98450887016952 251.96536201611161 9.526888005435465 5.270702699199318 36.390807599760592 4.4978035409003523 17.788935138843954 19.202902032993737 25.510054426267743 19.871920986101031 190.95344465225935 302.98524690233171 9.9812460951507074 13.886653265915809 25.914593117311597 12.31095155328512 38.665217608213425 34.395348832011223
leaf_count=293964 445 32 1266 4013 178 56 132 27 210 350 2233 420 181 5721 1435 183 157 121 921 1076 83 1196 1350 44 22 707 6 353 445 374 120 575 1373 30 226 164 115 515 481
internal_value=0 0.029373 0.00896058 0.0327402 0.000797784 -0.034337 0.00498209 0.0138645 0.00773555 0.024461 -0.0158025 0.0104702 0.00982048 0.0334829 0.0253713 -0.0217361 -0.00569156 0.0130619 -0.00700791 -0.00317814 0.0117098 0.0141042 0.0142182 -0.0120861 -0.0191248 -0.0259454 -0.00296906 -0.0204523 -0.0041079 0.00969898 -0.00625539 0.0181577 0.0153104 0.00756962 0.012974 -0.00315737 -0.0153814 -0.00744392 -0.00558806
internal_weight=0 13028.3 1844.82 11183.5 692.357 11144.9 552.973 1152.47 474.739 920.74 139.384 417.182 393.986 10262.8 893.758 116.253 26.9824 117.918 158.987 99.5985 405.654 356.33 294.388 57.5564 48.0295 41.6615 42.4222 22.2867 43.8764 245.366 45.382 677.728 486.774 183.789 135.143 39.8012 31.5139 48.6465 49.324
internal_count=321300 26720 14891 11829 7879 294580 5285 7012 3684 2095 2594 2884 3098 9734 1906 2416 189 471 2187 1257 2674 2110 1841 800 756 729 491 359 616 1690 494 3328 2753 1380 835 390 560 545 564
is_linear=0
shrinkage=0.02


Tree=5
num_leaves=40
num_cat=0
split_feature=256 256 257 182 256 256 256 256 180 107 21 44 195 183 257 217 187 43 96 207 130 111 130 146 99 158 111 257 157 86 147 175 118 84 42 245 118 10 164
split_gain=56103.2 2029.22 200.819 114.612 103.026 98.5522 93.0366 65.1502 70.001 60.9047 60.0297 53.0593 52.6205 49.6418 49.0783 58.3645 46.2087 46.0258 40.4604 40.3809 40.3291 39.2984 39.7168 37.25 36.4242 36.1839 36.1643 32.4137 41.77 38.868 32.376 30.5246 30.475 33.5485 30.3714 30.3146 30.1621 32.7029 28.7451
threshold=0.020204081632653064 0.050641025641025648 0.31278838306134782 0.098754525184631362 0.033615819209039555 0.087337909992372245 0.016807909604519777 0.037386443046820407 0.03339114040136338 0.058494007214903838 0.059479892253875739 0.058324143290519721 0.076340749859809889 0.016315051354467872 0.31775531215202346 -0.093802850693464265 0.24449303001165393 0.034402726218104369 0.11648305878043176 -0.088967047631740556 1.0000000180025095e-35 -0.036182807758450501 0.083377040922641768 -0.087572462856769548 0.08302637562155725 0.038972062990069396 0.053670035675168044 0.18958790689476321 0.052784197032451637 -0.13485725969076154 -0.012828359380364416 0.057740209624171264 -0.024047792889177796 0.017771846614778045 0.05428020283579827 -0.094277150928974138 -0.13650876283645627 0.046254253014922149 -0.06612702831625937
decision_type=2 2 2 2 2 2 2 2 2 2 2 2 2 2 2 2 2 2 2 2 2 2 2 2 2 2 2 2 2 2 2 2 2 2 2 2 2 2 2
left_child=6 2 4 17 9 14 -1 8 10 26 23 -9 21 16 38 -16 27 20 36 -15 -4 22 -11 -5 -13 -23 -2 -6 -29 31 -8 -30 33 -19 -22 -21 -10 -38 -3
right_child=1 5 3 7 13 -7 30 11 18 12 -12 24 -14 19 15 -17 -18 32 -20 35 34 25 -24 -25 -26 -27 -28 28 29 -31 -32 -33 -34 -35 -36 -37 37 -39 -40
leaf_value=-0.033489051020597974 0.01606132987582326 0.031155982516862912 0.029187814743853371 0.011023949527508556 0.029460990013510067 0.033434011336047439 0.0092665994394294307 0.017981660539211335 0.018483735084334856 0.022230923590994808 -0.033322216267768434 -0.015616585664730164 -0.033388643368617583 0.017091045887842597 0.025435763428879796 -0.01051422604903606 -0.033622596969490645 0.021107618404791053 0.021044237587706786 -0.023576440715765219 -0.02692588273188461 0.0012888378694649028 -0.017771371068742353 -0.011366159102143862 0.022388019486054844 -0.025440797649045232 -0.037468946575956591 0.023827163119013499 -0.023193415596601145 0.01739080735832535 -0.027698577316461519 0.0099919626787825181 0.017519971227600201 -0.035844609558340727 0.0095209048972980988 0.0061234635909396453 0.005956796821473917 -0.032873214314175593 0.024973716131171702
leaf_weight=10824.98767150403 206.56101067829877 2674.7038315497339 6.2086807377636424 204.93937394488603 182.33800587803125 6973.7032145261765 27.25394577998668 211.45160161331296 6.6868251711130133 55.550623193383217 15.111752979457377 35.906782620586455 17.638010242953897 160.02635312080383 634.14174262993038 18.593544434756041 5.9640275221317998 6.337387070059779 10.10258738324046 17.392553178593516 92.15747540560551 111.52914825733751 12.088552974164484 34.763298762962222 14.028365302830933 24.753837110474706 5.1747239660471669 309.80091934278607 19.668467339128256 116.23791668005288 14.530588179826735 25.411478346213698 26.460797096602619 11.917133376933633 10.153021547943352 65.580869115889072 10.460267722606657 50.857574165798724 338.95889289863408
leaf_count=293964 1111 3016 19 1620 360 6183 268 1136 47 239 300 528 382 789 1146 83 89 36 51 258 2220 1122 179 479 64 458 89 1003 255 518 348 153 169 305 83 485 100 1168 477
internal_value=0 0.0285041 0.0104534 0.00215299 0.0150988 0.0320384 -0.0333741 0.00612946 0.00026197 0.00708278 0.00533941 0.0136027 -0.000247392 0.0189477 0.0293837 0.0244117 0.0217952 -0.0132695 -0.0163025 0.0112204 -0.0203055 0.00261912 0.0150817 0.00777678 -0.00493989 -0.00356621 0.0147531 0.022301 0.0195299 0.0112771 -0.00358806 -0.00448688 0.00380618 -0.0160726 -0.023309 -0.00010211 -0.0218506 -0.0262492 0.0304606
internal_weight=0 12723.4 2083.26 747.543 1335.72 10640.1 10866.8 594.308 332.922 433.296 254.814 261.387 221.56 902.421 3666.4 652.735 659.421 153.234 78.1073 243 108.519 203.922 67.6392 239.703 49.9351 136.283 211.736 653.457 471.119 161.318 41.7845 45.0799 44.7153 18.2545 102.31 82.9734 68.0047 61.3178 3013.66
internal_count=321300 26720 15815 8325 7490 10905 294580 5493 3765 3580 2399 1728 2380 3910 4722 1229 2378 2832 1366 1532 2322 1998 418 2099 592 1580 1200 2289 1929 926 616 408 510 341 2303 743 1315 1268 3493
is_linear=0
shrinkage=0.02


Tree=6
num_leaves=40
num_cat=0
split_feature=256 256 257 256 135 256 200 7 118 183 14 167 256 256 86 22 164 125 170 162 108 61 209 147 131 200 226 226 180 199 155 231 103 246 257 129 205 206 158
split_gain=52084.7 1890.3 157.918 149.459 120.003 87.3434 83.5592 77.3733 57.5315 56.8901 53.4968 51.2307 51.1249 46.1266 42.9627 42.7832 42.1213 51.9856 39.533 38.1718 35.5239 35.1394 34.8519 34.1247 31.6203 31.5339 31.485 31.1324 30.9416 30.9327 30.745 29.2021 30.236 29.0461 29.7907 28.5885 28.3271 28.0269 27.8707
threshold=0.020204081632653064 0.045804195804195813 0.23837326054602478 0.059411764705882358 -0.0087175024673342687 0.016807909604519777 -0.016531561501324173 0.040224174037575729 -0.018503298051655289 0.041137697175145156 0.15894007682800296 -0.065075781196355806 0.091750841750841763 0.033615819209039555 -0.042905820533633225 0.044622914865612991 -0.11907801777124404 -0.23206631839275357 -0.010940891690552233 -0.014226200524717568 0.0046205504331737765 0.070225343108177199 -0.074955288320779787 1.0000000180025095e-35 0.052553644403815276 -0.00042320287320762867 0.039462847635149963 0.022674343548715118 0.03763218596577645 0.048209851607680328 0.0035318377194926147 0.024142257869243625 0.033988732844591148 -0.076466828584671007 0.35087313930062192 0.052367301657795913 0.063431356102228179 0.053836965933442123 0.066453244537115111
decision_type=2 2 2 2 2 2 2 2 2 2 2 2 2 2 2 2 2 2 2 2 2 2 2 2 2 2 2 2 2 2 2 2 2 2 2 2 2 2 2
left_child=5 2 13 9 6 -1 10 23 11 18 16 -8 31 22 15 21 38 -18 25 30 -10 -13 -2 37 33 -3 -27 -24 -7 -19 35 -5 36 -12 -35 -11 -33 -6 -4
right_child=1 3 4 12 7 28 8 -9 20 19 24 14 -14 -15 -16 -17 17 29 -20 -21 -22 -23 27 -25 -26 26 -28 -29 -30 -31 -32 32 -34 34 -36 -37 -38 -39 -40
leaf_value=-0.032612297082896959 -0.022216684146742858 0.027515737721069519 0.020849644519916093 0.02994977885602728 0.0059017311435977373 0.006063003540954146 -0.030618588917430235 0.013914167594423311 0.016273056806776966 0.014671050500700472 0.020210659083331878 -0.019841581023109778 0.032646973248630778 0.021224510194993496 0.019195877075175047 0.015136162083485097 -0.030735766464645323 0.011510798258265811 0.007622091143903437 -0.032143043556773471 -0.017007070527048657 0.00056076137360858971 -0.028307361503660235 -0.025859555174904996 -0.028955612313466418 -0.026889219489761022 0.018438228697318561 0.013249881860616276 -0.034871527710268017 -0.031121483779429849 0.018868449375465536 -0.023724427149448668 0.024396632296123082 0.0024520678318645946 -0.02878869557916796 -0.03483159513169478 0.024725068327432091 -0.023185719743640001 -0.025739752733587421
leaf_weight=10604.608952717623 13.101701494306324 641.20882482919842 243.30021630786359 3324.8087070286274 33.506680207327008 31.689832549076527 31.006417730357498 39.689336109906435 86.772373173385859 9.2264023330062646 28.708597850054502 82.430008444935083 6397.3529191762209 381.08387776743621 29.724594049155712 29.200546655803919 12.748053919523953 289.95726224780083 50.685279041528702 8.5978608615696412 15.05551992356777 57.198192738927901 7.518761107698082 83.16385715873912 14.063067713752387 6.5542399808764449 94.637575281783938 176.00070171337575 9.6310412334278208 6.9713764414191237 62.769893445074558 11.314745344221594 85.957118641585112 68.529716706834733 14.85633977409452 9.442204646766184 8.4185728877782804 21.91749276779592 5.246869169175624
leaf_count=293964 223 1036 1093 3849 348 345 703 293 552 39 155 1403 5721 1391 160 188 231 2080 204 130 242 610 128 1994 288 55 268 1082 271 132 238 40 113 715 311 125 11 467 102
internal_value=0 0.0277171 0.00858092 0.0308824 0.00442769 -0.0324992 0.00708392 -0.0107067 -0.00115956 0.0230012 0.0110755 -0.00670965 0.0315907 0.0171652 -0.00297599 -0.00687965 0.0137338 0.00881196 0.0247115 0.0079355 0.0113525 -0.0114838 0.00929745 -0.0177577 -0.000686761 0.0258783 0.0155023 0.0115473 -0.00347799 0.0105099 0.0121668 0.0296208 0.0192712 0.00285977 -0.00311389 -0.0103664 -0.00305504 -0.0056009 0.0198661
internal_weight=0 12482.7 1771.75 10711 1194.05 10645.9 1015.77 178.277 331.388 883.122 684.382 229.56 9827.85 577.705 198.553 168.829 558.224 309.677 793.086 90.0364 101.828 139.628 196.621 138.588 126.158 742.401 101.192 183.519 41.3209 296.929 81.4385 3430.5 105.69 112.095 83.3861 18.6686 19.7333 55.4242 248.547
internal_count=321300 26720 14891 11829 12067 294580 8965 3102 3858 2095 5107 3064 9734 2824 2361 2201 3638 2443 1563 532 794 2013 1433 2809 1469 1359 323 1210 616 2212 402 4013 164 1181 1026 164 51 815 1195
is_linear=0
shrinkage=0.02


Tree=7
num_leaves=40
num_cat=0
split_feature=256 256 182 256 256 256 193 183 54 200 107 248 227 193 20 154 58 35 180 58 177 30 249 121 14 256 122 135 15 111 193 106 167 220 166 126 76 257 240
split_gain=48676.4 1786.33 138.716 134.841 90.1023 82.635 69.8215 62.054 56.7121 56.1481 56.0381 42.7797 42.7322 41.9668 41.1288 40.5743 39.0703 42.3216 37.1564 36.2783 34.8799 34.3914 33.076 39.3853 32.9033 32.3516 30.6135 30.6135 30.2083 29.2801 30.1372 29.2737 28.9549 28.4395 40.2792 31.7647 27.8495 26.4587 25.4889
threshold=0.020204081632653064 0.045804195804195813 0.11426381021738054 0.067231638418079109 0.033615819209039555 0.016807909604519777 0.049128357321023948 0.041137697175145156 0.14267160743474963 -0.016531561501324173 0.088633961975574507 0.11279779672622682 -0.06598328053951262 0.053018238395452506 0.050672108307480819 0.055633289739489562 0.12398590520024301 -0.069764550775289522 0.014682129025459291 0.011293688323348762 0.029415193945169452 0.093503866344690337 0.063653491437435164 0.045776570215821273 0.082930821925401701 0.10102040816326532 0.054499041289091117 0.011734858155250551 -0.059689367190003388 -0.069283906370401369 0.107136107981205 -0.13858915865421292 -0.020272582769393917 0.011365626007318498 -0.3290268182754516 -0.11692500114440917 -0.099300831556320177 0.18958790689476321 0.005801011575385929
decision_type=2 2 2 2 2 2 2 2 2 2 2 2 2 2 2 2 2 2 2 2 2 2 2 2 2 2 2 2 2 2 2 2 2 2 2 2 2 2 2
left_child=5 2 6 7 10 -1 19 22 12 27 15 14 -8 21 20 33 37 -18 -17 -2 -12 -9 23 -3 -10 -5 -26 -6 -25 -7 -31 -19 -21 -4 -35 -36 -20 -11 -24
right_child=1 3 4 25 9 29 8 13 24 16 11 -13 -14 -15 -16 18 17 31 36 32 -22 -23 38 28 26 -27 -28 -29 -30 30 -32 -33 -34 34 35 -37 -38 -39 -40
leaf_value=-0.031814173380048091 0.011835317875763892 0.025231490078392222 0.016510815444960327 0.029631468285970013 0.018771547313259262 0.022650479637797524 -0.023131378167630497 -0.02796456397721362 0.0099011691432648197 0.028102522895903762 0.0085400572859545641 -0.024142343326242793 0.012920493804202635 0.01714812313187894 -0.035085561639981652 0.0087145062439615492 -0.02280498948783391 -0.021784835262358571 0.0062257262426862105 -0.02989220299809861 -0.019455414629553521 0.019816066580206976 0.023101932132895683 0.023694027808601883 0.014857237800316215 0.032068093870112203 -0.022225466048493507 -0.019448315611658266 -0.00895263533298255 -0.031671779223703206 0.0097982106207631474 0.018925875241729392 0.003391405197456739 -0.025317580001291959 -0.035982088925697459 0.013131566139823959 -0.032692043620387884 0.008227282380410544 0.028941878545904579
leaf_weight=10418.20293893246 13.206068228930233 74.509087216109037 204.47182686347514 3713.5496736578643 613.35552940610796 12.170598281547425 14.497455191798506 17.203840098343793 24.821679522283375 32.960217177867889 103.86356996651739 35.963803482241929 141.60015813587233 98.005798785015941 11.95328899938613 40.18654551403597 31.688240307383239 9.4608920151367766 10.973395116627215 60.817934150341898 21.483812862075865 9.2738874386996013 472.57982441456988 17.307784449774772 10.423468792811034 5276.653080381453 61.124678457388654 8.4990560710430128 32.865477544255555 16.777884111274037 12.039657029323278 27.900400185957551 12.625299258157609 16.404514238238335 5.7092381725087753 68.070045223459601 22.30502855964005 143.16077666170895 813.64866769663058
leaf_count=293964 112 137 1143 4008 2750 56 313 216 229 59 878 719 1094 377 287 299 512 146 95 1582 403 33 910 37 83 4807 1335 143 164 445 115 134 149 273 120 447 444 1142 1140
internal_value=0 0.0270171 0.00829113 0.0301261 0.0110561 -0.0317027 -0.00319231 0.0246485 0.00212424 0.0150534 0.0046544 -0.00472465 0.0095722 0.0111122 0.000361517 0.00906887 0.00694771 -0.00580329 -0.00422887 -0.018683 0.0037418 -0.0112293 0.0258428 0.0160073 -0.0099398 0.0310616 -0.0168231 0.0182492 0.00230917 -0.00336069 -0.0143461 0.00861682 -0.0241706 0.0123843 0.00302841 0.00933102 -0.0198591 0.0119468 0.0267962
internal_weight=0 12273.1 1747.53 10525.6 1408.41 10459.2 339.117 1535.39 252.467 867.025 541.385 173.264 156.098 124.484 137.301 368.121 245.171 69.0495 73.465 86.6493 125.347 26.4777 1410.91 124.682 96.3698 8990.2 71.5481 621.855 50.1733 40.9881 28.8175 37.3613 73.4432 294.656 90.1838 73.7793 33.2784 176.121 1286.23
internal_count=321300 26720 14891 11829 9994 294580 4897 3014 3054 4886 5108 2287 1407 626 1568 2821 1993 792 838 1843 1281 249 2388 338 1647 8815 1418 2893 201 616 560 280 1731 1983 840 567 539 1201 2050
is_linear=0
shrinkage=0.02


Tree=8
num_leaves=40
num_cat=0
split_feature=256 256 257 182 256 256 256 180 80 14 257 140 227 21 7 243 257 193 49 115 30 14 65 7 125 183 133 193 111 141 193 9 128 234 107 58 195 226 146
split_gain=45702.1 1707.02 170.358 91.9287 88.9747 86.4469 79.5223 59.0966 71.2023 49.7522 42.3213 42.074 41.9081 37.1208 35.424 35.1608 34.8553 34.4088 33.403 37.0131 33.3846 32.2345 37.9628 31.7891 31.4721 31.2235 30.2692 28.2115 26.677 26.6414 26.5856 26.5818 25.9775 25.6327 25.2852 24.7496 24.6485 24.3778 26.1002
threshold=0.020204081632653064 0.050641025641025648 0.31278838306134782 0.12217460572719575 0.040408163265306128 0.084219858156028379 0.016807909604519777 0.03992483206093312 0.035281185060739524 0.082930821925401701 0.29293652119713459 0.027429644949734214 -0.055300274863839143 -0.043540015816688531 -0.065457779914140687 -0.10256873816251753 0.4686664849896196 -0.0081672449596226198 -0.012657449580729006 -0.030618420802056786 0.12918892502784732 0.15894007682800296 0.063986483961343779 -0.015980028547346588 -0.20537769794464109 0.016315051354467872 -0.033372318372130387 0.071689527481794371 -0.069283906370401369 -0.1239151395857334 0.107136107981205 0.058679161593317992 0.069107290357351317 -0.20639041811227796 0.10967575386166574 0.035023849457502372 0.0027577757136896257 0.064238782972097411 -0.089236795902252183
decision_type=2 2 2 2 2 2 2 2 2 2 2 2 2 2 2 2 2 2 2 2 2 2 2 2 2 2 2 2 2 2 2 2 2 2 2 2 2 2 2
left_child=6 2 4 9 7 10 -1 12 15 16 -3 18 35 -14 -13 -9 34 -12 27 31 -18 -15 -23 -11 -25 -6 -16 -5 -8 -24 -30 -20 -19 -10 -4 -2 -37 38 -34
right_child=1 5 3 11 25 -7 28 8 33 23 17 14 13 21 26 -17 20 32 19 -21 -22 22 29 24 -26 -27 -28 -29 30 -31 -32 -33 37 -35 -36 36 -38 -39 -40
leaf_value=-0.031084933533267779 0.026981240037039212 0.028281471386900747 0.015865429931670748 0.0029154596243635396 0.023695270663444581 0.030962822660098654 0.021648686580972611 -0.030542026834588107 0.027303759750148541 -0.025086561728085221 -0.0090897302367765401 -0.030395375283549329 0.019671455235939328 0.013266490882713642 -0.030294082386080574 0.013289914770771166 -0.03227607297357997 0.024811577953928281 0.010671751884905319 0.014522480626042084 0.024147214275130922 0.0090713342052572404 -0.0010535085017319514 -0.028342085351538086 0.0014114697705312005 0.011977208741711841 0.0046732374337490152 0.020931510518188881 -0.030503739674816236 -0.033878749308423571 0.008799834320419862 -0.011530294615778423 0.014603353422837606 -0.026048715716364024 -0.011423794800545527 0.015572476606055438 -0.028633445520270532 0.01924909166034772 -0.029431194816671207
leaf_weight=10252.189700086368 6.0258294045925131 2401.677682608366 56.978226167149842 46.865836441051215 355.03642524406314 6923.4356680586934 12.263803539797662 8.1371820988133532 3.9184332303702822 72.527903210255317 13.228410681709645 16.714997434057295 233.12711372366175 288.14529349049553 11.077377102337776 72.933109314180911 17.526521122083071 664.76051216758788 32.292307072784752 75.246420248411596 5.5143264792859545 77.489361064508557 23.623354720883071 19.295348268002272 54.065105579560623 122.28282627556473 93.349038295913488 134.672547172755 16.101056567858908 17.012529558502138 12.025585943832992 64.965669246390462 12.056115079671146 44.606190403923392 17.831823384854943 6.6821502111852196 20.597013260237873 67.987095851451159 9.729010636918245
leaf_count=293964 19 2911 361 449 864 6531 56 179 11 1819 76 341 1009 1699 254 507 472 1142 254 463 23 568 257 488 729 656 870 557 445 323 115 969 36 927 276 46 425 149 60
internal_value=0 0.0263665 0.00947914 0.00168885 0.0138559 0.0297105 -0.0309746 0.00978813 -0.00257878 -0.00829694 0.0269748 0.00681093 0.0121706 0.0133099 -0.00336297 0.00889042 0.00273626 0.0228872 0.0102921 0.00399008 -0.0187724 0.00965947 0.000860792 -0.0156972 -0.00641434 0.0206933 0.000963963 0.0162805 -0.00296664 -0.0147961 -0.0136994 -0.00415861 0.0234479 -0.0217404 0.00936073 -0.00970189 -0.017805 0.0133495 -0.00506202
internal_weight=0 12091.4 1998.54 718.923 1279.62 10092.9 10292.6 802.298 129.595 243.739 3169.44 475.184 672.703 639.398 121.141 81.0703 97.8509 767.761 354.043 172.504 23.0408 406.271 118.125 145.888 73.3605 477.319 104.426 181.538 40.3904 40.6359 28.1266 97.258 754.533 48.5246 74.81 33.305 27.2792 89.7722 21.7851
internal_count=321300 26720 15815 8325 7490 10905 294580 5970 1624 4168 4374 4157 4346 3856 1465 686 1132 1463 2692 1686 495 2847 1148 3036 1217 1520 1124 1006 616 580 560 1223 1387 938 637 490 471 245 96
is_linear=0
shrinkage=0.02


Tree=9
num_leaves=40
num_cat=0
split_feature=256 256 257 256 135 193 107 7 27 133 256 253 18 257 43 14 147 248 158 147 200 7 199 201 91 122 175 183 144 256 164 206 97 138 128 168 162 198 188
split_gain=43012.7 1703.01 137.279 126.285 113.645 74.4687 81.3357 60.6854 50.6076 55.2878 46.6041 46.5806 40.5757 37.9468 37.4627 33.6357 31.4815 30.6979 30.7316 30.2519 29.8711 29.5271 29.1693 30.4286 28.9669 28.6479 28.0991 27.9267 29.7191 26.8128 25.6617 24.8278 23.371 23.3512 22.9238 22.8317 23.4785 22.6932 22.684
threshold=0.016807909604519777 0.045804195804195813 0.22632710198613401 0.059411764705882358 -0.0087175024673342687 0.10195668414235116 0.039473723620176322 0.040224174037575729 -0.12234508991241454 -0.013993145897984503 0.091750841750841763 -0.22796162217855451 -0.058104915544390671 0.34493841062598279 -0.01242226082831621 0.16356955468654635 0.077238079160451903 0.035938298329710967 0.058029722422361381 1.0000000180025095e-35 0.028532714582979683 0.061033289879560478 0.00041302671888843184 0.025479814969003204 0.12376489117741586 0.13121914863586429 -0.0017317252932116387 -0.019762098789215084 -0.11795303598046301 0.026671408250355622 -0.066653236746788011 0.053836965933442123 0.10684617608785631 0.059772698208689697 0.062454445287585265 0.019145413301885131 -0.10771935805678366 -0.15599933266639707 0.010349771473556759
decision_type=2 2 2 2 2 2 2 2 2 2 2 2 2 2 2 2 2 2 2 2 2 2 2 2 2 2 2 2 2 2 2 2 2 2 2 2 2 2 2
left_child=-1 2 27 11 5 6 -4 19 29 21 30 17 22 -13 25 20 -15 -3 35 31 37 -10 24 -24 -11 34 -17 -2 -29 -8 -5 -6 -30 -16 -14 36 -19 -7 -28
right_child=1 3 4 10 7 15 8 -9 9 12 -12 13 14 16 33 26 -18 18 -20 -21 -22 -23 23 -25 -26 -27 38 28 32 -31 -32 -33 -34 -35 -36 -37 -38 -39 -40
leaf_value=-0.030413497430807054 0.022518577131315377 -0.037177316554562641 0.011701880704078665 0.028227460150952021 0.0046997213861764385 -0.019817144532748545 -0.034080780204342812 0.011257420367335803 -0.023425786940889405 -0.033979064599627871 0.030470911335023276 0.02502498212434846 0.0052965996070492892 0.014652573300215759 -0.030004927794250704 -0.032838920003049027 -0.0359179853276222 -0.02562929598792232 -0.030219302482978209 -0.024575356545037223 -0.035140725785842736 0.017317723938692013 0.008109412204575072 -0.03468408889514224 0.0030956450412853447 -0.021498582334560874 -0.010086147116517988 0.014767541538074502 -0.018188840942186858 0.013680629204703736 0.023127649768429508 -0.02204417505340828 0.021441609311542247 0.016843934487155276 -0.028168149634743136 0.023677041489052763 0.011146107213095165 0.017782675888994914 0.015303317928699059
leaf_weight=10091.561473993352 189.27082893345505 5.4763449765741816 251.35578248463571 2819.2437589354813 35.448020384646952 6.5587398726493111 4.9789244728162876 39.366030365228653 78.655289427377284 32.444377832696773 6092.9931179285049 629.744245743379 79.701923383865505 104.22377151274122 4.5130623932927838 8.6766075463965517 5.168182896450161 8.6599525623023492 6.6104573756456366 83.015089420136064 4.4593039695173493 7.8224001601338378 31.981689997948706 8.3900107918307167 11.388526130467651 27.509155099280179 22.673720819875598 262.48673745198175 20.4089151583612 84.417999038705602 458.91899731382728 22.826216836459935 8.4029275886714441 74.629395195282996 9.1253557279705984 49.693273738957942 35.046480275690556 305.15831142198294 37.119618158787489
leaf_count=293964 677 74 1720 3344 369 104 122 306 1666 717 5721 1092 729 455 103 214 96 62 65 2089 91 46 269 187 128 515 331 1365 297 584 669 513 31 409 191 109 142 1490 244
internal_value=0 0.0256438 0.00743048 0.0287688 0.00399043 0.00642222 0.00256885 -0.010703 -0.00247033 -0.00576408 0.0294364 0.0213619 -0.00144265 0.0231363 0.00355709 0.0135041 0.0122634 0.00892923 0.0114539 -0.0168216 0.0162563 -0.0197403 -0.0130494 -0.000783895 -0.0243464 -0.0036644 0.000794983 0.0165374 0.0126511 0.0110206 0.0275135 -0.00577595 -0.00663068 0.0141724 0.00185872 0.0144034 0.00385946 0.0169915 0.0056756
internal_weight=0 11968.6 1752.78 10215.8 1272.22 1091.56 706.914 180.655 455.558 366.161 9371.16 844.623 279.683 739.136 195.479 384.646 109.392 105.487 100.01 141.289 316.176 86.4777 84.2046 40.3717 43.8329 116.336 68.4699 480.569 291.299 89.3969 3278.16 58.2742 28.8118 79.1425 88.8273 93.3997 43.7064 311.717 59.7933
internal_count=321300 27336 15507 11829 13137 9860 7386 3277 5666 4960 9734 2095 3248 1643 1947 2474 551 452 378 2971 1685 1712 1301 456 845 1435 789 2370 1693 706 4013 882 328 512 920 313 204 1594 575
is_linear=0
shrinkage=0.02


Tree=10
num_leaves=40
num_cat=0
split_feature=256 256 257 256 182 256 256 180 80 183 7 125 57 168 58 195 164 80 14 143 21 257 183 243 91 146 189 256 33 36 192 146 180 180 205 27 14 10 245
split_gain=40644.5 1566.97 143.62 99.0918 82.6756 73.4818 65.1549 50.5635 57.8048 43.7314 42.5842 41.9748 40.2479 48.8358 35.2937 40.0659 40.7222 34.7433 32.2857 29.7286 28.4574 28.4072 28.1968 28.1121 27.6967 27.6569 35.1986 27.3702 26.4611 26.9215 25.984 25.2689 25.0991 24.8228 23.9043 24.0335 25.207 23.5136 23.0481
threshold=0.020204081632653064 0.048003072196620589 0.31278838306134782 0.077677224736048281 0.12217460572719575 0.016807909604519777 0.040408163265306128 0.040236558765172965 0.035281185060739524 0.054377673193812377 -0.015089214779436587 -0.20537769794464109 0.032224955037236221 0.0073548767250031242 0.080814804881811156 0.092252198606729521 -0.078797928988933549 -0.079304523766040788 0.11308130249381067 -0.062569346278905855 0.073500838130712523 0.27024472032761954 0.013403004966676237 -0.10256873816251753 0.075989585369825377 -0.07039314508438109 -0.011610707268118857 0.036700336700336705 0.081337455660104765 -0.02351389359682798 -0.0058584823273122302 -0.11060214787721633 0.03763218596577645 0.042299037799239166 0.00092382496222853671 0.0073078372515738019 0.15768498927354815 0.14158028364181521 -0.0072631996590644112
decision_type=2 2 2 2 2 2 2 2 2 2 2 2 2 2 2 2 2 2 2 2 2 2 2 2 2 2 2 2 2 2 2 2 2 2 2 2 2 2 2
left_child=5 2 6 9 10 -1 7 14 23 21 17 -12 13 -6 -2 16 19 -4 -11 -16 31 -3 -8 -9 -13 30 -27 -14 29 -18 -23 33 -7 -15 35 36 -21 -32 -19
right_child=1 3 4 -5 12 32 22 8 -10 18 11 24 27 20 15 -17 28 38 -20 34 -22 25 -24 -25 -26 26 -28 -29 -30 -31 37 -33 -34 -35 -36 -37 -38 -39 -40
leaf_value=-0.029795354917995932 0.018117244774310558 0.026852336739573275 0.011284334171479227 0.029465267626898717 -0.0119208708519095 0.0057450358606557349 0.022584577936058094 -0.029109446699434046 -0.020434867361667011 0.020651244737081749 -0.023179294510089737 0.011345595456981121 0.0038999089606424711 0.015176162702067094 -0.030465807111745621 -0.029859097576548158 -0.025942536312060716 -0.025984570475383488 -0.0034855457393815187 0.012091053651513846 -0.034250003620741938 0.02379066626762456 0.010598310941762936 0.011742909156763546 -0.014004486384367696 0.016707077693190877 -0.023716088780248487 0.021197220798707436 0.02083785117750828 0.0042302024349035704 0.0169324556768825 -0.00093524305901249985 -0.032284275871065832 -0.031489086257573552 0.015172147179917222 -0.035533283837085892 -0.01329714817178042 -0.031671878139015765 0.0088836965828501587
leaf_weight=9943.2534314652439 210.02063597971573 1639.8668767102063 13.774644872173665 7449.7696633338928 78.950854764087126 31.268564415397123 276.37162556126714 7.4453648547641924 45.739765303675085 58.318290906026959 26.498793275095522 72.19751961453585 61.409668057225645 120.88719139434397 6.6253019096329799 10.802487647626547 27.107761534862217 82.853363639093004 35.759744738228619 66.604991003870964 6.6419015601277342 681.64719355222769 109.65036292839795 70.900769433937967 22.647639343515038 39.16600726544857 11.04658823343925 90.54203462600708 11.633121091872452 20.985532509163026 10.651169523596765 80.536768779158592 8.9229482891969365 4.7382794227451077 281.97705658618361 5.9149939818307748 20.44453969784081 6.3578778482042244 8.346803477033971
leaf_count=293964 988 2083 126 7369 1239 345 701 177 932 157 622 641 577 709 125 214 482 2176 214 379 148 1227 602 503 410 123 80 370 52 196 27 891 271 114 1526 107 289 51 93
internal_value=0 0.0251699 0.00822886 0.028312 0.000842614 -0.0296863 0.0124507 0.00914674 -0.00256947 0.0248517 -0.00899434 -0.000925205 0.00586009 0.00151302 0.0113425 0.00819523 0.00912677 -0.0183217 0.0114767 0.0115305 0.00649702 0.0253785 0.0191799 0.00786064 0.00529237 0.022151 0.00781413 0.0142067 -0.00622943 -0.0127766 0.0231814 0.00780976 -0.00269788 0.0134161 0.0122725 0.00347758 0.00612836 -0.00123555 -0.0227934
internal_weight=0 11774.8 1842.25 9932.58 670.025 9983.44 1172.22 786.202 124.086 2482.81 226.319 121.344 443.707 291.755 662.116 452.096 441.293 104.975 94.078 381.567 212.804 2388.74 386.022 78.3461 94.8452 748.869 50.2126 151.952 59.7264 48.0933 698.656 206.162 40.1915 125.625 374.942 92.9645 87.0495 17.009 91.2002
internal_count=321300 26720 15389 11331 8116 294580 7273 5970 1612 3962 4068 1673 4048 3101 4358 3370 3156 2395 371 2426 1862 3591 1303 680 1051 1508 203 947 730 678 1305 1714 616 823 2301 775 668 78 2269
is_linear=0
shrinkage=0.02


Tree=11
num_leaves=40
num_cat=0
split_feature=256 256 257 182 256 256 256 14 107 183 257 256 140 257 195 60 243 183 107 133 170 111 158 165 24 207 243 12 205 164 111 130 0 10 16 161 171 22 255
split_gain=38500.9 1508.8 139.895 79.1103 78.0104 70.9171 70.4871 41.4385 41.0411 38.9504 37.2837 36.9695 42.7104 35.9457 35.2915 31.1232 30.5713 31.7834 29.8571 28.6956 27.8115 25.7118 26.6603 24.1218 24.0148 24.0126 28.2797 23.6036 25.1764 23.4328 23.011 22.427 22.4255 22.4247 25.1519 23.6324 22.0648 22.0429 28.7424
threshold=0.020204081632653064 0.050641025641025648 0.31278838306134782 0.12217460572719575 0.087337909992372245 0.033615819209039555 0.016807909604519777 0.127794124186039 0.058494007214903838 0.016315051354467872 0.41138266549291819 0.037386443046820407 -0.0057803657837212077 0.51400793164435254 0.076340749859809889 -0.0069332157727330914 -0.094191737473011003 0.015215340070426466 0.10967575386166574 -0.028641822747886177 -0.031268741935491555 -0.036182807758450501 0.023195773363113407 0.072405707091093077 0.056578300893306739 -0.092294055968523012 -0.095120221376419054 -0.061370113864541047 -0.024514449760317799 -0.080547973513603197 0.045367550104856498 0.083377040922641768 0.030733300372958187 0.11231179162859918 -0.13739823549985883 -0.012378863524645565 -0.024009345099329945 0.03125277720391751 0.093272354453802123
decision_type=2 2 2 2 2 2 2 2 2 2 2 2 2 2 2 2 2 2 2 2 2 2 2 2 2 2 2 2 2 2 2 2 2 2 2 2 2 2 2
left_child=6 2 5 7 10 8 -1 13 30 20 29 12 27 18 15 21 17 -13 23 -14 -7 31 -23 -4 -8 -11 -27 -5 -29 -3 -2 -10 -17 -12 -35 -36 -28 -9 -39
right_child=1 4 3 11 -6 9 24 37 14 25 33 16 19 -15 -16 32 -18 -19 -20 -21 -22 22 -24 -25 -26 26 36 28 -30 -31 -32 -33 -34 34 35 -37 -38 38 -40
leaf_value=-0.029224807827419146 0.013501404734871601 0.026771592469040161 0.010682809623248387 0.021190330075798798 0.029169742551436301 0.020763737683118913 0.012151352476415323 -0.02601523511215512 0.020787059916185711 0.013982923918630355 0.023590398010017638 0.012831336510662596 -0.030256057690550488 -0.025905788953794587 -0.02957349428627801 0.013263311341890347 0.016153530326241162 -0.022345128731662466 -0.015629009335729353 -0.0031480049383776705 0.010707486250332106 0.006283375579667053 -0.014807967773042162 -0.018907553052484555 -0.018873902825834916 -0.018629728419045057 0.012376197921906824 -0.033687387340629198 0.0064406179671629097 0.022599014844052381 -0.024783301889012177 -0.012459115606693454 -0.030156731207595253 -0.023691198553313225 -0.025857635214781679 0.015829878815204135 -0.019076629173615214 -0.024646757875897173 0.022154145417126538
leaf_weight=9799.7188550271094 188.93642690312117 2494.8492061225697 89.667437964119017 44.322082206606865 6339.6457825265825 477.74870171584189 20.954870760440826 59.054642520321067 50.180669948458672 136.86211312189698 79.913290517404675 22.824257589876652 18.123589211143553 21.648916754173115 15.508147770073263 6.3982394505292204 168.90641209599562 18.685880584642291 30.056461779400706 113.07061835005879 142.911503798794 69.597073681186885 36.568858313839883 12.56370945740491 19.053395834518597 22.710429763421416 54.916106561198831 6.8569431174546471 71.123979432508349 686.5041177412495 6.4956884495913974 9.6820482145994884 18.559634339995682 8.5801149383187276 5.9134765192866316 67.857030137674883 10.652047751471398 10.929333749692889 10.099300501868127
leaf_count=293964 1087 3161 813 194 6183 1550 186 1599 192 710 148 149 447 579 382 51 881 310 604 1386 828 618 586 247 430 358 318 158 632 1110 113 149 402 63 46 194 146 271 55
internal_value=0 0.0246368 0.00856545 0.00139493 0.0278661 0.0125764 -0.0291166 -0.00808558 0.00565956 0.0158633 0.0253942 0.00617735 0.00103352 -0.00201534 -0.000557851 0.00179823 0.0123743 -0.00300343 0.00189435 -0.0068928 0.0184482 0.0049285 -0.000981538 0.0070463 -0.00262401 0.00873716 0.000604431 0.00953607 0.00291212 0.0258712 0.0122289 0.0154099 -0.0190255 0.0160428 0.00871866 0.0124882 0.00726645 -0.0197538 -0.00216996
internal_weight=0 11628.9 1945.66 697.934 9683.26 1247.73 9839.73 234.02 401.927 845.801 3343.62 463.914 253.497 153.937 206.495 190.987 210.417 41.5101 132.288 131.194 620.66 166.029 106.166 102.231 40.0083 225.141 88.2786 122.303 77.9809 3181.35 195.432 59.8627 24.9579 162.264 82.3506 73.7705 65.5682 80.0833 21.0286
internal_count=321300 26720 15815 8325 10905 7490 294580 4168 3580 3910 4722 4157 2817 2243 2380 1998 1340 459 1664 1833 2378 1545 1204 1060 616 1532 822 984 790 4271 1200 341 453 451 303 240 464 1925 326
is_linear=0
shrinkage=0.02


Tree=12
num_leaves=40
num_cat=0
split_feature=256 256 257 256 135 256 256 168 147 103 107 20 14 257 165 111 183 180 209 183 30 182 93 161 16 222 146 46 241 147 80 184 237 147 120 207 249 184 7
split_gain=36543.9 1461.27 127.627 93.9266 84.6185 67.6667 57.6216 53.6934 48.2576 40.4751 39.3887 40.2529 39.173 36.4134 34.4311 33.5256 32.4448 30.1964 28.0392 26.5484 26.3077 25.7219 25.3988 31.2157 24.9462 26.623 24.7343 23.4886 28.2427 22.9514 22.6479 22.4434 38.3864 22.6314 21.5047 21.2853 21.2444 21.0452 20.7635
threshold=0.020204081632653064 0.048003072196620589 0.27303303989452304 0.077677224736048281 -0.011177122592926024 0.016807909604519777 0.033615819209039555 -0.00099789426894858458 0.024834227748215202 0.041846796870231635 0.11135146766901018 0.022811536677181724 0.13465881347656253 0.27024472032761954 0.054113842546939857 -0.080840677022933946 0.055062681436538703 0.052233390510082252 -0.045383298769593232 0.016315051354467872 0.10027074068784715 0.12369493395090105 0.042892437428236015 0.080702930688858046 -0.097668129950761781 0.0059566774871200332 -0.095876544713973985 -0.048011137172579758 0.18958596140146258 -0.012828359380364416 0.006708157481625677 -0.096386011689901338 -0.052523305639624589 0.040186520665884025 0.035488855093717582 -0.072752777487039552 0.084143266081810011 -0.0938231125473976 -0.070572149008512483
decision_type=2 2 2 2 2 2 2 2 2 2 2 2 2 2 2 2 2 2 2 2 2 2 2 2 2 2 2 2 2 2 2 2 2 2 2 2 2 2 2
left_child=5 2 6 13 7 -1 17 9 15 20 12 26 24 -3 -11 -6 31 22 -17 -8 -4 -14 23 34 25 -9 -12 28 -21 35 -19 -15 -33 -34 -2 -7 -20 -27 -23
right_child=1 3 4 -5 8 29 19 10 -10 14 11 -13 21 16 -16 18 -18 30 36 27 -22 38 -24 -25 -26 37 -28 -29 -30 -31 -32 32 33 -35 -36 -37 -38 -39 -40
leaf_value=-0.028695783789177198 0.0036958404562443745 0.025497682840547153 -0.019897799843543007 0.028362509132566893 0.02238883379139062 0.016388593038931202 0.019088019571813771 -0.015289313921964393 -0.024100794245379288 0.010596778303143825 0.0089561150958813139 -0.024202340706421088 -0.014530114142957953 0.023173852376179957 -0.018966364023834625 -0.017531069130802834 0.0032369464025284399 0.008694732507493072 -0.032465155743373886 0.007343775627388735 0.011129377334172449 -0.033419416634533648 0.012096380753379765 0.018614439078601167 0.018231374558140258 0.014746243528066742 -0.016211799750188532 0.019678982169453421 -0.025030912756389374 -0.023595548570912391 -0.032721387725430484 -0.019453793898008612 0.019349570136550805 -0.013012279907452995 -0.020212662644276694 -0.032342889157275748 0.011231565843769891 -0.017915332629713607 0.0080134653032550539
leaf_weight=9658.018263499951 28.523120105266571 1645.9353279201314 67.140801712404937 7251.8940894268453 18.610190284438431 21.87392356176861 453.39713023696095 18.62504290882498 63.056753842334729 75.524697009823285 78.353727515786886 25.663049024529755 29.054945317097008 560.09635157440789 19.91324740415439 47.365783822373487 42.422673709690571 8.6293792501091975 5.1322099780663839 69.042796339839697 13.05666970880702 5.0402822941541663 169.41945056570694 22.651925770565867 231.19984896108508 72.846985556185246 19.50829831045121 50.095796654000878 12.772339272312818 13.643642055569215 13.612723259255288 12.074116711271925 152.47193107102066 9.1632604058831912 31.853840588591993 4.2880922164767972 33.503849742468446 8.8497942276298982 120.57531646825373
leaf_count=293964 285 2172 1342 7369 85 154 1598 294 1644 595 626 549 559 1053 390 956 266 76 135 462 101 115 1051 105 994 444 341 198 211 348 338 73 335 63 520 114 294 127 954
internal_value=0 0.0241355 0.00765796 0.0272236 0.00261718 -0.0285885 0.013244 0.00537081 -0.0102807 -0.00437272 0.00817754 -0.00190751 0.0107398 0.0238137 0.00442839 -0.00195035 0.0202428 0.00568707 -0.00721717 0.0167905 -0.0148464 0.00242846 0.00765535 -0.00140651 0.0146174 0.00628884 0.00393902 0.00889362 0.00228969 -0.00256586 -0.016653 0.021226 0.0149453 0.0175149 -0.00891787 0.00840125 0.00542712 0.0112082 0.00635099
internal_weight=0 11487.1 1813.02 9674.06 953.021 9697.82 859.999 785.353 167.669 175.635 609.717 123.525 486.192 2422.16 95.4379 104.612 776.228 274.69 86.0018 585.308 80.1975 154.671 252.448 83.0289 331.522 100.322 97.862 131.911 81.8151 39.8057 22.2421 733.806 173.709 161.635 60.377 26.162 38.6361 81.6968 125.616
internal_count=321300 26720 15389 11331 10545 294580 4844 7431 3114 2428 5003 1516 3487 3962 985 1470 1790 2375 1385 2469 1443 1628 1961 910 1859 865 967 871 673 616 414 1524 471 398 805 268 429 571 1069
is_linear=0
shrinkage=0.02


Tree=13
num_leaves=40
num_cat=0
split_feature=256 256 256 257 183 180 256 256 80 78 107 117 195 49 14 200 152 168 193 243 234 170 247 137 81 245 217 101 164 164 187 125 30 160 195 111 75 177 24
split_gain=34765.8 1414.8 154.931 98.0936 70.9676 65.4614 64.6568 58.049 48.0736 46.0201 44.4648 43.9663 41.9278 38.2789 37.0135 34.8678 32.0452 31.6852 30.6421 30.628 28.0635 27.4358 26.1826 25.684 31.8099 25.3337 24.9087 24.7168 24.6481 23.7188 23.0463 22.921 25.2836 22.8477 22.5951 22.0941 22.0931 22.0053 21.7523
threshold=0.020204081632653064 0.053101503759398504 0.03883861236802414 0.36320352301127029 0.014143021311610939 0.046498579904437072 0.016807909604519777 0.091750841750841763 0.03416853956878186 0.017815511673688892 0.046868497505784042 -0.056940270587801926 0.014483785256743433 -0.0050599065143614999 0.16067311167716983 1.0000000180025095e-35 0.091631099581718459 0.0014704280765727165 0.047777313739061363 -0.089362442493438707 -0.11676306650042532 0.021326195448637012 -0.007872151676565407 0.16268556565046313 -0.052159748971462243 -0.082065809518098817 -0.23504006862640378 -0.093904130160808549 -0.066653236746788011 -0.057084767147898667 0.21706523746252063 -0.17078079283237454 0.048432074487209327 0.038947682827711112 0.089799381792545332 -0.069283906370401369 0.078663192689418807 0.051243973895907409 0.053706528618931777
decision_type=2 2 2 2 2 2 2 2 2 2 2 2 2 2 2 2 2 2 2 2 2 2 2 2 2 2 2 2 2 2 2 2 2 2 2 2 2 2 2
left_child=6 2 3 5 15 10 -1 21 19 27 37 12 26 17 18 16 30 -11 31 -7 34 28 -23 24 -15 -16 -12 -5 -3 -19 38 36 -33 -14 -13 -8 -6 -2 -4
right_child=1 7 4 9 14 8 35 -9 -10 13 11 20 33 23 25 -17 -18 29 -20 -21 -22 22 -24 -25 -26 -27 -28 -29 -30 -31 -32 32 -34 -35 -36 -37 -38 -39 -40
leaf_value=-0.028205885263438694 0.016548156458397412 0.02581966684979017 0.023758922889785917 0.00013699288969566789 -0.032085723567838439 -0.024083941801328661 0.019699470833491089 0.028259484749042132 -0.025335946371288224 -0.018051712002531195 -0.025037447984086313 0.013164773103036549 -0.021404513660317245 -0.023307919142468502 -0.020770680593893597 0.0058277842456758589 0.022861056226124825 0.017418427978520893 0.013701438455727409 0.0095923602443271916 -0.0087558911298640414 -0.025210327121017079 0.019023481134044579 0.015984991230159461 0.015436550431823844 0.0046215475949120529 0.010987426141881277 -0.023115682521953201 0.020969650365588809 -0.032434776599365417 -0.013477539195545831 -0.024478732779272119 0.020577178977211185 -0.002489810656787112 -0.032738149213086619 -0.012627944295269261 0.011537304411666742 -0.0058558139004296671 0.0051468481265043728
leaf_weight=9519.6962659540586 274.96321011282271 2981.0156755028293 49.267587086185813 23.973269952810369 15.416328653693201 13.622839491348712 12.310782318934796 5765.1930842362344 39.295558884274215 14.446665597148238 8.4419851228594762 250.3927677241154 45.371800357475877 48.328751574736089 27.871243260800838 74.433841902762651 439.23314335476607 65.330542563926429 216.9706049922388 52.181724553927779 27.882511137984693 8.2660453356802481 15.186415776610373 11.663902199827133 10.279041867703198 36.038801056449302 84.751131390687078 77.071056521497667 487.71067305654287 4.0542821031995109 13.592312426888382 6.7420188193209496 19.082809424027801 58.456367530394346 4.36412171088159 27.011420620139688 6.6459006499499074 18.730834414251149 51.240930481813848
leaf_count=293964 1307 3861 132 337 315 310 56 5721 939 293 156 1572 823 1068 459 482 996 363 1174 415 408 29 34 80 71 325 610 1799 826 103 151 141 89 696 105 560 44 206 280
internal_value=0 0.0236713 0.00880908 0.00380722 0.0147369 0.00697793 -0.0281002 0.0270269 -0.00783192 -0.0071093 0.00899061 0.00523803 -0.00201438 -0.000231363 0.00720912 0.0186792 0.020408 0.00889485 0.0105056 0.0026207 0.0102935 0.024992 0.00343285 -0.0111186 -0.0165126 -0.00645203 0.00772408 -0.0175989 0.0251377 0.0145054 0.0109647 -0.00397464 0.00881455 -0.0107553 0.0123784 -0.00250705 -0.018945 0.0151193 0.0142702
internal_weight=0 11347.5 2090.14 1133.6 956.536 878.455 9559.02 9257.37 105.1 255.148 773.355 479.661 197.021 154.103 328.768 627.768 553.334 83.8315 264.858 65.8046 282.639 3492.18 23.4525 70.2717 58.6078 63.91 93.1931 101.044 3468.73 69.3848 114.101 47.8871 25.8248 103.828 254.757 39.3222 22.0622 293.694 100.509
internal_count=321300 26720 16249 11661 4588 7547 294580 10471 1664 4114 5883 4370 2285 1978 2547 2041 1559 759 1763 725 2085 4750 63 1219 1139 784 766 2136 4687 466 563 589 230 1519 1677 616 359 1513 412
is_linear=0
shrinkage=0.02


Tree=14
num_leaves=40
num_cat=0
split_feature=256 256 256 257 182 256 107 183 193 14 128 42 45 256 256 226 240 155 18 193 175 209 14 94 181 243 227 49 115 257 46 248 52 237 231 10 99 169 74
split_gain=33148.5 1370.79 114.509 104.439 76.7159 63.6388 47.4549 45.4833 42.4847 41.1049 34.7135 33.4244 29.9467 29.5761 29.4548 27.7469 27.6827 28.4395 30.0651 27.012 26.6906 26.2493 25.7783 25.1315 24.2689 23.277 22.6699 22.7727 25.5843 23.3498 22.4808 23.5559 21.6476 21.5527 26.0375 31.1168 21.5375 21.4814 21.4005
threshold=0.020204081632653064 0.045804195804195813 0.067231638418079109 0.24023565841735386 0.11329009756445886 0.016807909604519777 0.032823400571942336 0.041137697175145156 0.087636355310678496 0.15637229382991794 0.072094466537237181 0.049155317246913917 -0.0016253730864264069 0.10102040816326532 0.033615819209039555 0.011603273451328279 0.005801011575385929 -0.043855508789420121 -0.038114896044135087 0.053018238395452506 0.10584291070699693 -0.074955288320779787 0.082930821925401701 0.014073225669562818 -0.074143059551715837 -0.10793727263808249 -0.068717610090970979 -0.0072381242644041768 -0.099923864006996141 0.37186156028090256 -0.025381762534379956 0.090129621326923384 0.02686970587819815 -0.061589648947119706 0.0043663494288921365 0.13297457247972491 -0.013025118969380854 1.0000000180025095e-35 -0.099303416907787309
decision_type=2 2 2 2 2 2 2 2 2 2 2 2 2 2 2 2 2 2 2 2 2 2 2 2 2 2 2 2 2 2 2 2 2 2 2 2 2 2 2
left_child=5 3 7 14 8 -1 -6 16 11 10 15 30 -11 33 21 -8 17 18 -3 23 26 -2 -10 -9 32 -16 -17 -28 -29 -30 -5 -32 -12 34 -4 -36 -14 -7 -24
right_child=1 2 13 4 6 37 9 19 22 12 24 -13 36 -15 25 20 -18 -19 -20 -21 -22 -23 38 -25 -26 -27 27 28 29 -31 31 -33 -34 -35 35 -37 -38 -39 -40
leaf_value=-0.027750247610875953 -0.022183772677175001 -0.025549471948993357 0.022083761001921453 -0.023013318933048948 0.01291752473539047 -0.030756517371511007 -0.032237683594158656 0.0065691467203993483 0.014539949729762058 0.011331845851225405 -0.028712935720967989 0.010797080010556435 0.0051881137237288592 0.028056792864859317 -0.0038836416014152221 -0.018495735001862308 0.024247845522786929 0.019586461495460127 0.013608308273737407 0.013812750308408703 -0.012400129497761947 0.0089752685246499726 0.014107158255617107 -0.035488595165343993 0.012005134720835173 0.01809712863961695 0.013995647531887834 -0.032846164657143816 0.0096457083418068565 -0.010035041335625525 -0.023948954979390286 0.012690468484541934 0.0058100285691205164 0.02606518292517308 0.023334532616652172 -0.021769399688291089 -0.017444224998057631 0.0054045063174018807 -0.01262317129121999
leaf_weight=9385.7759726024233 11.550394017249344 11.499463506042956 226.08371295407414 91.361897123220842 254.65765815041959 8.3385248011909407 7.0432737949304274 14.361550569534304 42.636440766975284 26.565796667709947 26.088320831768215 18.388631904497743 21.435950470156968 4854.992178350687 20.419210654683411 11.612863436341284 810.70377848867793 453.60815939656459 24.66681307181716 93.191729152575135 24.668708969838917 169.75944757508114 16.206553662195802 9.4047459857538325 13.888384812511502 342.67187471641228 224.26190263871104 7.1429604636505237 125.52789999078959 29.846939649432898 12.128432908561082 16.660066298209131 10.069587430916725 3036.1801518537104 12.016519188880922 12.464609647169707 78.084928638068959 31.002791298087686 45.944036839995533
leaf_count=293964 229 74 313 2426 1474 245 175 106 286 200 550 150 205 4807 199 205 1300 949 65 377 341 1243 132 143 94 1234 1309 155 917 479 290 149 100 3649 14 32 1442 371 907
internal_value=0 0.0232469 0.0261516 0.00640444 0.00286991 -0.0276438 0.00567253 0.0209054 -0.00704584 0.00262917 0.00529788 -0.0143139 -0.00753354 0.027065 0.0135736 0.00713226 0.0219798 0.0182256 0.00115766 0.00895891 0.00778771 0.00699027 0.0025633 -0.0100738 -0.010467 0.016861 0.00903775 0.00986443 0.00416368 0.00586511 -0.0181571 -0.00274551 -0.0190987 0.0255999 0.0199622 0.000369786 -0.0125694 -0.00225994 -0.0056529
internal_weight=0 11207.8 9559.17 1648.62 1104.22 9425.12 860.895 1417.44 243.326 606.238 480.151 138.539 126.087 8141.74 544.401 430.105 1300.48 489.774 36.1663 116.958 423.061 181.31 104.787 23.7663 50.0463 363.091 398.393 386.78 162.518 155.375 120.15 28.7885 36.1579 3286.74 250.565 24.4811 99.5209 39.3413 62.1506
internal_count=321300 26720 11829 14891 11986 294580 7646 3014 4340 6172 4325 3015 1847 8815 2905 3581 2388 1088 139 626 3406 1472 1325 249 744 1433 3065 2860 1551 1396 2865 439 650 4008 359 46 1647 616 1039
is_linear=0
shrinkage=0.02


Tree=15
num_leaves=40
num_cat=0
split_feature=256 256 256 135 200 256 256 183 182 256 32 7 249 60 12 111 148 211 107 40 152 121 164 152 24 117 65 126 161 251 147 23 237 139 7 27 153 6 37
split_gain=31660.6 1342.17 114.445 97.0777 76.1388 60.512 53.4991 42.034 40.0689 39.1322 36.8018 36.1566 35.4531 30.2637 31.5264 29.6977 28.6249 26.978 25.7948 26.9924 25.4866 25.4635 25.5093 25.1658 28.5694 31.1701 22.6824 29.4659 24.8306 20.5587 20.4339 19.9906 19.4332 19.4016 19.3754 24.1609 22.6008 20.1557 19.2678
threshold=0.020204081632653064 0.045804195804195813 0.059411764705882358 -0.0033715914469212289 -0.01617930922657251 0.016807909604519777 0.033615819209039555 0.012251876760274174 0.13354196399450305 0.096006144393241177 0.013514649588614704 0.040224174037575729 0.099860642105340972 0.032042691484093673 -0.054584324359893792 -0.054309759289026253 -0.074962634593248353 -0.045118881389498704 0.10551694035530092 0.025254190899431709 0.10145961120724679 0.0014028198784217241 -0.11244878545403479 0.097756568342447295 0.082568690180778517 -0.046568743884563439 0.054242068901658065 -0.13118065148591992 0.090382330119609847 0.012808860279619695 -0.012828359380364416 -0.060219071805477135 -0.049656841903924935 -0.10555353388190268 0.0046172882430255422 0.0045070429332554349 0.063023634254932417 -0.0082873748615384085 0.0071140106301754722
decision_type=2 2 2 2 2 2 2 2 2 2 2 2 2 2 2 2 2 2 2 2 2 2 2 2 2 2 2 2 2 2 2 2 2 2 2 2 2 2 2
left_child=5 3 7 4 6 -1 15 -3 10 -4 -6 16 21 14 -10 32 -5 -16 26 -20 -12 -9 -23 24 -8 -26 28 -28 -17 34 -7 -27 -2 -18 35 36 37 -19 -24
right_child=1 2 9 11 8 30 23 12 13 -11 20 -13 -14 -15 17 18 33 29 19 -21 -22 22 38 -25 25 31 27 -29 -30 -31 -32 -33 -34 -35 -36 -37 -38 -39 -40
leaf_value=-0.027325020229004598 -0.03312512393930462 0.021468242864349181 0.024740594622138904 0.018731795458319798 -0.022918406426150256 0.0079962017482844913 0.013752381627761734 0.022457052346852371 0.016276671178296877 0.02750262967625389 -0.015693233318136646 0.0096616626546582145 0.016840366792035807 -0.029457411070867266 -0.012822722980779555 -0.011118282312745391 0.0054184262893378701 0.019943622814002901 -0.018370965165491884 0.0059487869280120901 0.007762737995990694 0.010344340002175829 -0.031700242732175046 0.017279946330741883 -0.021201399445097024 0.019590206812262225 -0.032570490683267464 0.011053934766359295 0.016423905221321578 -0.027848543850434299 -0.022475264718294856 -0.0050447543338202607 0.015963184493172602 -0.019663837968171484 0.014809557461760076 -0.033149554141109351 0.011006978000709449 -0.019789777999754291 -0.0026635616660248941
leaf_weight=9252.6978851589374 3.3352416008710852 563.58314653695561 3360.3280749525875 9.9892165996134263 46.53924801107496 25.78285712422803 164.49363250145689 16.325649412348866 82.399547236040235 5269.1052646525204 28.780301250517368 33.563002802431583 157.00558988377452 10.081666393205522 41.229569393675774 52.878073149826378 14.068857924547045 6.6323428452014914 44.047581510152668 31.175441242754459 52.024134257808328 24.036555605474859 17.073584289290011 404.4859035811387 21.934003684669733 26.135802119038999 6.4508273135870686 155.12201744772028 17.402404490858316 7.2052023522555819 13.366539359325541 26.571600830182433 98.380313300527632 100.13397790072486 68.108154207700863 7.6937376800924531 58.136631713248789 22.201291040168147 19.674827699782327
leaf_count=293964 71 1042 4389 57 1041 268 923 37 434 5345 586 277 518 211 601 735 170 31 843 310 501 108 221 1734 336 114 142 1106 99 128 348 268 527 2353 371 159 393 370 169
internal_value=0 0.0228512 0.0257571 0.00615943 0.00774565 -0.02722 0.0106454 0.0185092 0.000665612 0.0264271 -0.00875121 -0.00875659 0.011386 0.00461431 0.00578424 0.00498725 -0.0137341 0.00169076 0.00188475 -0.00829188 -0.000591629 0.000280459 -0.00567574 0.0142391 0.00909572 -0.00116655 0.00518649 0.00931222 -0.00429846 0.00521114 -0.00240748 0.00717088 0.0143536 -0.0165739 0.00667455 0.000821632 0.00382686 -0.0106503 -0.0161542
internal_weight=0 11068.3 9427.13 1641.2 1483.44 9291.85 1052.41 797.699 431.032 8629.43 127.344 157.755 234.116 303.688 293.606 408.792 124.192 211.207 307.076 75.223 80.8044 77.1106 60.785 643.621 239.135 74.6414 231.853 161.573 70.2805 169.977 39.1494 52.7074 101.716 114.203 162.772 94.664 86.9703 28.8336 36.7484
internal_count=321300 26720 11829 14891 12034 294580 7208 2095 4826 9734 2128 2857 1053 2698 2487 3833 2580 2053 3235 1153 1087 535 498 3375 1641 718 2082 1248 834 1452 616 382 598 2523 1324 953 794 401 390
is_linear=0
shrinkage=0.02


Tree=16
num_leaves=40
num_cat=0
split_feature=256 256 257 256 182 256 256 164 177 117 14 189 22 115 7 257 43 140 130 193 109 158 92 180 121 111 58 187 119 253 240 133 208 180 30 209 257 191 118
split_gain=30265 1294.35 112.421 75.296 64.0763 61.835 58.2158 45.2771 39.8772 40.038 38.3011 37.4891 37.4235 40.3088 37.1553 30.8506 28.5102 28.1898 26.2809 26.0786 24.4567 24.2968 24.0026 23.331 23.3096 22.6433 28.8947 22.5515 22.0848 21.7615 28.939 21.2822 19.8965 19.8838 19.7837 19.471 19.0957 21.0126 18.9331
threshold=0.020204081632653064 0.050641025641025648 0.31278838306134782 0.077677224736048281 0.098754525184631362 0.04210992907801419 0.016807909604519777 -0.10288710519671439 0.050827620550990112 -0.06940776482224463 0.091147113591432585 -0.028084800578653809 0.046659234911203391 -0.040684890002012246 0.04263622127473355 0.41138266549291819 0.034402726218104369 0.031451076269149787 1.0000000180025095e-35 0.049128357321023948 -0.046663204208016389 0.033273668959736831 -0.079609103500843034 0.052233390510082252 0.10288168862462045 -0.046687219291925423 0.083677191287279143 0.14218816906213763 0.043721372261643417 -0.22407893836498258 0.02721548825502396 -0.028641822747886177 0.018354548141360286 0.03763218596577645 0.086997639387846007 -0.027033640071749684 0.35695359851793146 -0.039005175232887261 -0.024047792889177796
decision_type=2 2 2 2 2 2 2 2 2 2 2 2 2 2 2 2 2 2 2 2 2 2 2 2 2 2 2 2 2 2 2 2 2 2 2 2 2 2 2
left_child=6 2 5 15 16 7 -1 21 9 11 19 -9 13 14 -12 -3 18 -15 -4 20 -6 23 -13 -2 -17 -11 -27 -28 -29 30 32 -22 -7 -8 -23 -10 -5 -38 -18
right_child=1 3 4 36 10 29 33 8 35 25 12 22 -14 17 -16 24 38 -19 -20 -21 31 34 -24 -25 -26 26 27 28 -30 -31 -32 -33 -34 -35 -36 -37 37 -39 -40
leaf_value=-0.026927771569633868 0.016039614540011637 0.022899263239371467 0.024069056229966055 0.026909987449388818 -0.032355404867193863 -0.034020043711524221 0.0050699021569375457 0.0046342812949307557 -0.029876848271381429 0.018411869866225929 -0.017028229113191181 0.0096360375030765007 0.014184136548750581 0.0093203664686333631 0.013345832267388833 0.014096694951658224 -0.013808777686096179 -0.015788309623775393 -0.019936319877427357 0.012746057360623895 -0.030947478216319487 0.0013878722681592657 -0.027158081484728754 -0.01324104474820907 -0.024874684434308882 0.014453115219982823 0.0069956792177143 -0.023435308525852874 0.01533485477277967 0.020324211771738997 0.019161584338546915 0.0096082064588376825 0.0029814417380009286 -0.029604375064023244 0.01632607531849907 0.010998200292734604 0.023592572328787555 0.003603579459366197 0.014296733661567482
leaf_weight=9117.034313008422 320.28599936095998 2095.4695997261442 5.7745894268155089 6424.0795764401555 9.4638131042011064 8.1341333840973693 30.550258747534826 59.358076761476696 21.099107279907916 73.582235487177968 104.53924404270947 8.8868269212543947 52.541841033380479 88.65548795228824 19.043829783797264 93.705121638253331 16.186236643232405 22.405876277014613 90.60956514836289 204.24890911113471 6.1107519874349228 121.00130571378395 35.112277333857492 11.268053483217953 6.5694868811406186 63.755191348493099 36.643902770243585 28.190409513190389 7.4249529112130395 292.84604443609715 37.476644079200923 33.826155657414347 20.370515730232 8.4435314268339408 50.164613301865757 5.983536832034587 410.08324623852968 22.173175815492868 23.516575103159994
leaf_count=293964 1497 3163 19 6861 218 86 345 560 461 316 1980 69 340 731 129 309 341 399 2303 1248 159 1144 680 184 64 364 291 512 40 771 112 289 135 271 223 45 478 30 169
internal_value=0 0.0224687 0.00736091 0.0256039 0.000842302 0.0110332 -0.0268235 0.00807275 0.00243613 0.00445094 0.00392893 -0.00573609 -0.001073 -0.0044894 -0.0123477 0.0223807 -0.0114246 0.00425486 -0.0172999 0.0095922 -0.0034475 0.0118853 -0.0197265 0.0150445 0.0115435 0.00947442 0.00463936 -0.00401943 -0.0153527 0.0179863 0.00761006 0.00340278 -0.00757736 -0.0024383 0.0057659 -0.0208461 0.0266362 0.0225672 0.00283854
internal_weight=0 10930.6 1878.51 9052.08 676.923 1201.58 9156.03 842.756 340.037 312.954 540.836 103.357 287.186 234.644 123.583 2195.74 136.087 111.061 96.3842 253.65 49.4007 502.72 43.9991 331.554 100.275 209.597 136.014 72.2593 35.6154 358.827 65.9813 39.9369 28.5046 38.9938 171.166 27.0826 6856.34 432.256 39.7028
internal_count=321300 26720 15815 10905 8325 7490 294580 6386 3338 2832 5493 1309 3579 3239 2109 3536 2832 1130 2322 1914 666 3048 749 1681 373 1523 1207 843 552 1104 333 448 221 616 1367 506 7369 508 510
is_linear=0
shrinkage=0.02


Tree=17
num_leaves=40
num_cat=0
split_feature=256 256 257 182 256 256 256 226 57 58 193 58 14 249 46 180 115 193 107 257 190 16 117 175 195 243 102 17 183 90 73 62 22 72 205 30 202 180 111
split_gain=28975.2 1258.02 136.984 77.6241 61.2362 61.0667 56.5662 43.1639 46.5544 35.1765 37.125 30.5551 34.5529 33.7108 29.2885 29.079 27.7779 27.525 27.0295 25.6974 26.0625 30.5156 24.138 24.1363 22.7775 21.2914 20.5954 20.4952 20.3333 20.1539 20.0032 19.6655 19.6007 22.8498 22.0216 24.9012 19.3746 18.9985 18.9717
threshold=0.020204081632653064 0.053101503759398504 0.27165171554956857 0.113764476031065 0.040408163265306128 0.087337909992372245 0.016807909604519777 0.055646499618887908 0.028973933309316639 1.0000000180025095e-35 0.11006351932883264 0.054321788251400001 0.14646847546100619 0.093027092516422286 -0.025381762534379956 0.023667801171541217 -0.030618420802056786 0.061765702441334731 0.045784639194607742 0.29293652119713459 -0.051512457430362694 -0.026874837465584275 -0.019111158326268193 0.034733135253191001 0.072291251271963133 -0.086149565875530229 -0.091565046459436403 -0.13574617356061933 0.0087612443603575247 0.10008209198713304 -0.02170123532414436 -0.19327390938997266 0.036608675494790084 0.027681479230523113 1.0000000180025095e-35 0.051512455567717559 -0.050268843770027154 0.01543672662228346 -0.069283906370401369
decision_type=2 2 2 2 2 2 2 2 2 2 2 2 2 2 2 2 2 2 2 2 2 2 2 2 2 2 2 2 2 2 2 2 2 2 2 2 2 2 2
left_child=6 2 4 9 16 19 -1 8 15 -4 14 -9 24 -14 23 -5 17 18 -2 -3 -21 -22 -20 -11 -13 -16 -12 -26 -6 -17 37 -10 33 34 35 -19 -25 -15 -8
right_child=1 5 3 7 28 -7 38 11 31 10 26 12 13 30 25 29 -18 32 22 20 21 -23 -24 36 27 -27 -28 -29 -30 -31 -32 -33 -34 -35 -36 -37 -38 -39 -40
leaf_value=-0.026555640245987944 0.0079287050312186729 0.024110153748341433 0.014818799630057901 -0.0032230146035694958 0.021281002373419261 0.026593247297212547 0.018582290222159206 0.015704360957887742 -0.035918266459785284 -0.026075359057759002 -0.010876413185747147 0.01073226939333809 -0.025885235381245267 0.016315297784011688 -0.018055779580570849 -0.028735685443885481 0.01644667562164067 -0.022300772311241231 -0.020648137047988197 0.020408340747121674 -0.026300549567946356 0.021944952201064346 0.0069751784505788818 -0.016789342069986321 0.022289115699839407 0.012053744678265808 0.012865423307836885 -0.015436506303589328 0.011691668233276204 0.027259181608146509 -0.0097249680423358298 0.011598577125527925 0.019637158467199343 -0.012848210405271704 0.012115304744013112 0.0083816199034254333 0.0099421668411707621 -0.018312032588912182 -0.011692894199035764
leaf_weight=8983.044878971763 52.920577939599752 2232.3636728581041 27.132385667413473 73.49772819224745 330.51012498652562 5816.6427783221006 11.962771033868192 173.52335200295784 3.6514995545148841 75.825176733953413 23.483933612704277 291.06042404286563 22.686188851017505 37.65627985005267 15.097906084265558 35.63858703058213 138.08066145097837 17.553258907515556 39.601132838055491 687.49212788976729 10.507586695253851 10.468775026500223 18.594968885183334 33.440896050306037 7.4565940089523783 24.86639644484967 38.699390976864379 25.31989430449903 120.76753574609756 2.7710339725017539 34.516049622092396 75.915596892358735 58.508055271580815 21.724989721085876 162.62590267090127 26.634685209020972 16.051027454435825 7.6204329431056967 26.888249755371362
leaf_count=293964 395 2946 180 835 668 6183 56 860 45 2042 426 1903 454 204 329 825 625 286 739 1251 69 22 156 752 27 201 305 416 537 7 523 517 218 315 970 185 163 141 560
internal_value=0 0.0221152 0.00794352 0.0028995 0.0132858 0.0254057 -0.0264515 0.00599003 -0.00227754 -0.00670619 -0.00927373 0.00862912 0.00574929 -0.00437238 -0.0142297 -0.0105931 0.00871698 0.00603637 -0.00241543 0.0230569 0.0197383 -0.00222243 -0.0118219 -0.0189841 0.00895231 0.000678824 0.00389917 -0.00685399 0.0187148 -0.024696 0.00174402 0.00941793 0.00930809 0.00666375 0.00871341 -0.00380668 -0.00811988 0.0104872 -0.00237074
internal_weight=0 10790.9 2033.43 1045.91 987.522 8757.47 9021.9 791.314 191.474 254.597 227.465 599.839 426.316 102.479 165.281 111.907 536.244 398.164 111.117 2940.83 708.468 20.9764 58.1961 125.317 323.837 39.9643 62.1833 32.7765 451.278 38.4096 79.7928 79.5671 287.047 228.539 206.814 44.1879 49.4919 45.2767 38.851
internal_count=321300 26720 16249 11155 5094 10471 294580 6757 2229 4398 4218 4528 3668 1322 3487 1667 3889 3264 1290 4288 1342 91 895 2957 2346 530 731 443 1205 832 868 562 1974 1756 1441 471 915 345 616
is_linear=0
shrinkage=0.02


Tree=18
num_leaves=40
num_cat=0
split_feature=256 256 256 256 257 183 256 180 177 107 233 169 257 128 16 257 135 240 14 246 53 80 135 32 58 138 134 240 139 146 65 146 163 200 251 172 214 109 113
split_gain=27748.1 1223.51 106.06 77.4352 66.1665 58.0502 54.9588 41.6665 45.4892 44.4341 36.0208 35.8748 31.906 33.3705 30.7877 29.7227 29.0253 28.3845 28.4199 26.5538 25.8739 24.0314 23.1006 22.7628 22.5211 22.0194 21.9204 21.6057 21.0296 20.3472 19.2761 19.1373 19.2845 18.6899 18.657 18.6168 18.5248 21.7687 17.9226
threshold=0.020204081632653064 0.050641025641025648 0.036038961038961044 0.077677224736048281 0.36190075567885877 0.03728598169982434 0.016807909604519777 0.018803706392645839 0.037763711065053947 0.033328227698802955 -0.16147416085004804 -0.054443690925836556 0.18958790689476321 0.044895671308040626 -0.035223787650465958 0.31775531215202346 -0.015982247889041897 0.023278709501028064 0.12615635991096499 -0.034067144617438309 -0.058898421004414551 -0.022534377872943875 -0.027320402674376961 -0.0014701819745823739 0.024751155637204651 0.16390357911586764 0.097166940569877638 -0.056306377053260796 -0.077159553766250596 -0.090102676302194581 0.042532797902822501 -0.071020714938640581 -0.085209030658006654 -0.0045908053871244183 -0.002671008231118321 0.017710600048303608 -0.13632628321647641 -0.058205209672451012 -0.00097079158877022554
decision_type=2 2 2 2 2 2 2 2 2 2 2 2 2 2 2 2 2 2 2 2 2 2 2 2 2 2 2 2 2 2 2 2 2 2 2 2 2 2 2
left_child=6 2 4 15 7 11 -1 23 9 33 -7 25 -13 27 20 -3 31 18 -15 -16 -6 -11 -12 29 -20 -4 -18 -14 -22 -2 34 -17 -33 -9 -25 -8 -23 -38 -26
right_child=1 3 5 -5 14 10 35 8 -10 21 22 12 13 17 19 16 26 -19 24 -21 28 36 -24 30 38 -27 -28 -29 -30 -31 -32 32 -34 -35 -36 -37 37 -39 -40
leaf_value=-0.026205855670534614 0.0049124074208704814 0.022667289133205273 -0.032948581028204318 0.025940256387503698 -0.020413846474435483 -0.020810502332235137 -0.02968673378973187 0.018578872086192487 -0.019144470958751127 0.013492429586053898 0.010187074207709753 0.022766776602022771 -0.022994733822768527 0.008027092433870479 0.0106491032978854 0.020431273256527917 0.010196027314527822 0.014926190236017864 0.014947801286221434 -0.016750247675464385 0.011427335048416094 0.0011486248956509802 -0.0080885044856862705 0.0054515509736475197 0.0064055220941474532 0.012166428442223555 -0.01866996492352551 0.015908933020203492 -0.015962158434581829 -0.018179946549206228 0.013783244370353789 -0.036648159254000577 0.010618107731125733 -0.013772670625461111 -0.028262760037469258 0.0046866346020553217 0.0021793309336791012 -0.023205561956111471 -0.024136766443165533
leaf_weight=8845.0469323846046 82.573959362925962 1764.1274901661091 10.543112606392244 6653.9911786951125 85.368401691550389 26.707372912438586 7.9215808222070327 65.90082789119333 47.190907416399568 25.114255962893367 91.641479725018144 143.39963135775179 5.7833696557208887 74.123565101064742 48.325474632903934 292.02279368788004 57.133074784651399 83.230867031961679 10.79098062077537 20.005333552137017 23.458734802901745 48.346949686296284 39.629402135964483 42.574160611489788 9.908821798861025 7.3400587867945424 12.898578917607663 450.92572293244302 21.480566958896816 18.723308029584587 257.78808669256978 4.4106309232302037 15.898449648171662 8.0112829422578198 7.7626978252083054 30.838476144825108 19.615937638562173 43.429716605285648 34.24746964359656
leaf_count=293964 702 2545 211 7369 2019 588 230 276 963 184 617 314 86 504 384 584 211 420 53 409 188 555 611 353 79 43 80 2096 416 288 1492 46 70 118 120 386 236 927 563
internal_value=0 0.021764 0.0069976 0.0248747 0.00188644 0.0114747 -0.0261017 0.00490383 -0.00139783 0.00258223 0.000362215 0.013589 0.0142058 0.0123708 -0.008246 0.0215716 0.0165164 0.00581939 -5.31015e-05 0.00262735 -0.0139478 -0.00418057 0.00466985 0.00886885 -0.0109532 -0.0144313 0.00487943 0.0154163 -0.00166459 0.000644126 0.0115728 0.0191257 0.000353041 0.0150723 0.000252299 -0.00233842 -0.00816507 -0.0153073 -0.017283
internal_weight=0 10654.4 1853.94 8800.48 865.671 988.272 8883.81 667.032 257.61 210.419 157.978 830.294 812.41 669.011 198.639 2146.49 382.364 212.302 129.071 68.3308 130.308 136.507 131.271 409.422 54.9473 17.8832 70.0317 456.709 44.9393 101.297 308.125 312.332 20.3091 73.9121 50.3369 38.7601 111.393 63.0457 44.1563
internal_count=321300 26720 15815 10905 9630 6185 294580 6214 3259 2296 1816 4369 4115 3801 3416 3536 991 1619 1199 793 2623 1902 1228 2955 695 254 291 2182 604 990 1965 700 116 394 473 616 1718 1163 642
